"svm_type c_svc\nkernel_type rbf\ngamma 1.4\nnr_class 2\ntotal_sv 7881\nrho -0.950312\nlabel 0 1\nnr_sv 4338 3543\nSV\n1 1:0.21412945 2:0.063980303 3:0.18518519 4:0.37037037 5:3.7592627 6:1.1163142 7:0.079299994 8:0.088523707 9:0 10:0 11:0.71428571 12:0.34944238 \n0.6711118606566594 1:0.33794211 2:0.064521655 3:0.40740741 4:0.62962963 5:14.764649 6:1.1669576 7:0.12036604 8:0.14046206 9:0.66666667 10:0.66666667 11:0.85714286 12:0.32713755 \n1 1:0.1174698 2:0.87385937 3:0.37037037 4:0.40740741 5:2.6264107 6:1.3345769 7:0.1013404 8:0.13524656 9:0 10:0 11:0.85714286 12:0.49070632 \n0.03542473645115833 1:0.45830823 2:0.0510081 3:0.33333333 4:0.51851852 5:38.460772 6:2.5927148 7:0.036108801 8:0.093619822 9:0 10:0.33333333 11:0.42857143 12:0.12267658 \n1 1:0 2:0.12677503 3:0.074074074 4:0.074074074 5:1.6013826 6:1.0299854 7:0.11272137 8:0.11610136 9:0 10:0 11:0.28571429 12:0.0074349442 \n1 1:0.14238263 2:0.074345905 3:0.2962963 4:0.55555556 5:1.48936 6:1.4022248 7:0.11366315 8:0.15938129 9:0.33333333 10:0.33333333 11:1 12:1 \n0.3879447188659876 1:0.2190663 2:0.49578589 3:0.37037037 4:0.51851852 5:1.169753 6:1.8479828 7:0.11450034 8:0.21159466 9:0.33333333 10:0.33333333 11:0.71428571 12:0.2527881 \n1 1:0.17196882 2:0.054724969 3:0.22222222 4:0.2962963 5:1.44789 6:1.0596247 7:0.14690771 8:0.15566704 9:0 10:0 11:1 12:0.76579926 \n0.3145339993206329 1:0.23948115 2:0.195045 3:0.48148148 4:0.7037037 5:7.6468186 6:1.2622253 7:0.058465257 8:0.073796329 9:0.66666667 10:0.66666667 11:1 12:1 \n1 1:0.14507824 2:0.075341197 3:0.2962963 4:0.37037037 5:2.5396629 6:1.0375131 7:0.13840525 8:0.14359726 9:0 10:0 11:1 12:1 \n0.2427602365321848 1:0.3195775 2:0.05171257 3:0.40740741 4:0.40740741 5:7.8559846 6:1.1028347 7:0.10441703 8:0.11515472 9:0.33333333 10:0.33333333 11:1 12:0.94795539 \n1 1:0.28864533 2:0.017042706 3:0.33333333 4:0.33333333 5:1.7430624 6:1.0470062 7:0.087640455 8:0.0917601 9:0 10:0 11:0.71428571 12:0.16356877 \n1 1:0.29674889 2:0.21935536 3:0.25925926 4:0.2962963 5:2.2003717 6:1.4850284 7:0.10822113 8:0.16071145 9:0 10:0 11:0.85714286 12:0.32713755 \n1 1:0.18861987 2:0.27897985 3:0.48148148 4:0.62962963 5:1.0214231 6:1.2841866 7:0.099145971 8:0.12732193 9:0.33333333 10:0.33333333 11:0.85714286 12:0.26394052 \n1 1:0.38951213 2:0.06620669 3:0.51851852 4:0.7037037 5:1.5075567 6:1.0319018 7:0.13131678 8:0.13550603 9:0.33333333 10:0.33333333 11:1 12:0.76579926 \n1 1:0.3752355 2:0.8746695 3:0.11111111 4:0.18518519 5:1.4787371 6:1.4570046 7:0.050586446 8:0.073704686 9:0 10:0 11:0.28571429 12:0.029739777 \n0.3119381515147585 1:0.64315435 2:0.54978444 3:0.2962963 4:0.51851852 5:1.9428955 6:1.0143294 7:0.19020062 8:0.19292609 9:0 10:0.33333333 11:0.71428571 12:0.17100372 \n1 1:0.25366403 2:0.074204756 3:0.2962963 4:0.2962963 5:1.1293783 6:1.004263 7:0.11034428 8:0.11081468 9:0 10:0 11:0.71428571 12:0.24535316 \n0.00954815569629198 1:0.068531359 2:0.25720994 3:0.33333333 4:0.55555556 5:2.5793564 6:1.4947435 7:0.092891831 8:0.13884946 9:0.33333333 10:0.33333333 11:0.71428571 12:0.17100372 \n0.2967076425088101 1:0.32367408 2:0.096387705 3:0.33333333 4:0.37037037 5:12.53451 6:1.7547931 7:0.064378682 8:0.11297127 9:0 10:0 11:0.71428571 12:0.24535316 \n1 1:0.24711455 2:0.012641076 3:0.25925926 4:0.37037037 5:4.5887041 6:1.1065865 7:0.13275346 8:0.14690318 9:0 10:0 11:1 12:0.62453532 \n1 1:0.18036625 2:0.71785237 3:0.22222222 4:0.25925926 5:1.6974486 6:1.0657002 7:0.073462611 8:0.078289119 9:0 10:0 11:0.57142857 12:0.089219331 \n1 1:0.32683673 2:0.019471921 3:0.33333333 4:0.40740741 5:3.9369968 6:1.0491092 7:0.14649658 8:0.15369091 9:0 10:0 11:1 12:0.76579926 \n0.4927898961409325 1:0.41937095 2:0.094126037 3:0.2962963 4:0.33333333 5:35.80381 6:1.0286426 7:0.054818316 8:0.056388456 9:0 10:0 11:1 12:0.62453532 \n1 1:0.077822599 2:0.30589778 3:0.037037037 4:0.037037037 5:1.5737595 6:1.6152234 7:0.078757716 8:0.12721131 9:0 10:0 11:0 12:0.0037174721 \n1 1:0.11505145 2:0.26260746 3:0.2962963 4:0.37037037 5:2.4294005 6:1.2342276 7:0.086956075 8:0.10732359 9:0 10:0 11:0.71428571 12:0.34944238 \n0.9009120776022522 1:0.71737273 2:0.2384331 3:0.44444444 4:0.55555556 5:6.3204766 6:1.5137054 7:0.66063054 8:1 9:0.33333333 10:0.33333333 11:0.71428571 12:0.18587361 \n0.07177649904401737 1:0.91297241 2:0.42300442 3:0.25925926 4:0.2962963 5:21.811564 6:1.3220841 7:5.5812889e-05 8:7.3789332e-05 9:0 10:0 11:0.42857143 12:0.10780669 \n1 1:0.20751624 2:0.12166713 3:0.55555556 4:0.59259259 5:3.508747 6:1.5007149 7:0.141867 8:0.21290192 9:0.33333333 10:0.33333333 11:0.57142857 12:0.11524164 \n1 1:0.31850984 2:0.033202933 3:0.33333333 4:0.48148148 5:1.5772591 6:1.1517034 7:0.17796624 8:0.20496432 9:0.33333333 10:0.33333333 11:0.57142857 12:0.10408922 \n1 1:0.12377149 2:0.32081149 3:0.44444444 4:0.44444444 5:2.4576663 6:1.5135278 7:0.16702994 8:0.25280444 9:0.66666667 10:0.66666667 11:1 12:0.79182156 \n0.2258150221210118 1:0.29699457 2:0.2350437 3:0.2962963 4:0.59259259 5:171.04968 6:1.4057728 7:0.084333636 8:0.11855393 9:0 10:0.33333333 11:0.85714286 12:0.69888476 \n1 1:0.47809435 2:0.082713858 3:0.2962963 4:0.40740741 5:1.4541339 6:1.1976866 7:0.10878428 8:0.13028947 9:0 10:0 11:1 12:0.95539033 \n0.04007738016938774 1:0.19339683 2:0.01627916 3:0.55555556 4:0.62962963 5:6.2980879 6:1.8741308 7:0.034756406 8:0.065138052 9:0.33333333 10:0.33333333 11:0.71428571 12:0.35315985 \n1 1:0.13263344 2:0.0042619226 3:0.25925926 4:0.37037037 5:1.2811625 6:1.0501369 7:0.16832634 8:0.1767657 9:0 10:0 11:0.85714286 12:0.37918216 \n1 1:0.13459511 2:0.020319629 3:0.48148148 4:0.51851852 5:1.0546134 6:1.0611211 7:0.16961645 8:0.17998359 9:0.33333333 10:0.33333333 11:0.57142857 12:0.085501859 \n1 1:0.024703532 2:0.15719146 3:0.25925926 4:0.37037037 5:1.0585034 6:1.1405147 7:0.17888749 8:0.20402382 9:0 10:0.33333333 11:0.42857143 12:0.07063197 \n1 1:0.2124637 2:0.15611637 3:0.25925926 4:0.33333333 5:1.4436801 6:1.0032858 7:0.13381009 8:0.13424977 9:0 10:0 11:1 12:0.49070632 \n1 1:0.029570561 2:0.15427371 3:0.14814815 4:0.48148148 5:2.8575506 6:2.1084434 7:0.10924813 8:0.23034349 9:0 10:0.33333333 11:0.71428571 12:0.20446097 \n1 1:0.038060207 2:0.13998481 3:0.33333333 4:0.48148148 5:4.7796499 6:1.1304267 7:0.15489113 8:0.17509307 9:0.66666667 10:0.66666667 11:1 12:1 \n0.5906491022681891 1:0.14662942 2:0.68392163 3:0.40740741 4:0.48148148 5:1.8469941 6:1.4473944 7:0.083202339 8:0.1204266 9:0 10:0 11:0.71428571 12:0.23048327 \n1 1:0.1404652 2:0.25317847 3:0.22222222 4:0.2962963 5:1.3711602 6:1.4051242 7:0.096901335 8:0.13615841 9:0 10:0 11:0.71428571 12:0.35315985 \n0.2863743360583165 1:0.20705656 2:0.27523837 3:0.33333333 4:0.59259259 5:4.2702065 6:1.7093588 7:0.094804195 8:0.16205439 9:0.33333333 10:0.66666667 11:1 12:0.76579926 \n1 1:0.37632261 2:0.081351962 3:0.25925926 4:0.2962963 5:2.0168191 6:1.1260069 7:0.10046158 8:0.11312043 9:0 10:0 11:0.71428571 12:0.29739777 \n1 1:0.16643253 2:0.55095106 3:0.51851852 4:0.66666667 5:2.6432694 6:1.570802 7:0.07334953 8:0.11521759 9:0.66666667 10:0.66666667 11:0.85714286 12:0.51301115 \n0.0650156278467076 1:0.21513017 2:0.13215486 3:0.18518519 4:0.62962963 5:4.4653926 6:3.0886049 7:0.026338495 8:0.081349207 9:0 10:0.33333333 11:1 12:1 \n0.2961488096251907 1:0.25965147 2:0.2017807 3:0.25925926 4:0.2962963 5:3.2384539 6:1.068644 7:0.11708655 8:0.12512385 9:0 10:0 11:1 12:0.76579926 \n1 1:0.23114593 2:0.27853195 3:0.2962963 4:0.66666667 5:1.0072927 6:2.3671044 7:0.065977571 8:0.1561758 9:0.33333333 10:0.66666667 11:0.85714286 12:0.4795539 \n1 1:0.19276599 2:0.79054237 3:0.14814815 4:0.14814815 5:2.2750944 6:1.521493 7:0.074207627 8:0.11290638 9:0 10:0 11:0.14285714 12:0.014869888 \n1 1:0.17782462 2:0.09649987 3:0.25925926 4:0.37037037 5:5.7582236 6:1.0385375 7:0.093040451 8:0.096626002 9:0 10:0 11:0.71428571 12:0.35315985 \n1 1:0.064164221 2:0.26900232 3:0.2962963 4:0.44444444 5:5.5051402 6:1.0493311 7:0.17728219 8:0.18602772 9:0 10:0.33333333 11:1 12:0.7472119 \n1 1:0.13548063 2:0.085975375 3:0.14814815 4:0.25925926 5:1.2041835 6:1.0890867 7:0.091098 8:0.09921362 9:0 10:0 11:0.71428571 12:0.18587361 \n1 1:0.033791155 2:0.17918607 3:0.33333333 4:0.40740741 5:3.4848052 6:1.2142879 7:0.14587592 8:0.17713535 9:0.33333333 10:0.33333333 11:0.71428571 12:0.19702602 \n0.4092010686028285 1:0.34453841 2:0.072560307 3:0.2962963 4:0.33333333 5:9.5248394 6:2.2853107 7:0.024842863 8:0.056773662 9:0 10:0.33333333 11:0.42857143 12:0.059479554 \n1 1:0.39172382 2:0.020229745 3:0.51851852 4:0.55555556 5:1.260073 6:1.41675 7:0.10164927 8:0.1440116 9:0.33333333 10:0.33333333 11:1 12:0.79182156 \n1 1:0.18566649 2:0.10778231 3:0.44444444 4:0.51851852 5:2.7382323 6:1.0674266 7:0.15719172 8:0.16779062 9:0.33333333 10:0.33333333 11:0.71428571 12:0.25650558 \n1 1:0.1109377 2:0.98497923 3:0.18518519 4:0.18518519 5:1.2962421 6:1.2857312 7:0.060931816 8:0.078341935 9:0 10:0 11:0.28571429 12:0.026022305 \n1 1:0.27991176 2:0.075349829 3:0.51851852 4:0.62962963 5:2.2533763 6:1.2808578 7:0.09925447 8:0.12713086 9:0.33333333 10:0.33333333 11:1 12:0.94795539 \n1 1:0.11052467 2:0.40167852 3:0.59259259 4:0.66666667 5:1.4726401 6:1.2346239 7:0.12592419 8:0.15546902 9:0.33333333 10:0.33333333 11:0.71428571 12:0.35315985 \n0.04986260877751914 1:0.9130267 2:0.37750582 3:0.33333333 4:0.59259259 5:219.98639 6:2.151147 7:0.064431567 8:0.13860177 9:0 10:0.33333333 11:0.85714286 12:0.39033457 \n1 1:0.11396559 2:0.20087187 3:0.40740741 4:0.51851852 5:3.6576825 6:1.2295884 7:0.13585346 8:0.16704384 9:0.33333333 10:0.33333333 11:0.85714286 12:0.32342007 \n1 1:0.18430972 2:0.045005664 3:0.22222222 4:0.33333333 5:1.0074621 6:1.3535072 7:0.087681656 8:0.11867776 9:0 10:0 11:0.85714286 12:0.32342007 \n0.1082344853994638 1:0.14307855 2:0.27205435 3:0.40740741 4:0.44444444 5:64.37055 6:1.3575761 7:0.046722822 8:0.063429788 9:0.66666667 10:1 11:1 12:1 \n1 1:0.17585614 2:0.079931531 3:0.44444444 4:0.48148148 5:2.0415938 6:1.1318196 7:0.1491838 8:0.16884915 9:0.33333333 10:0.33333333 11:0.71428571 12:0.16356877 \n1 1:0.27797499 2:0.064749613 3:0.44444444 4:0.55555556 5:2.7674817 6:1.3026627 7:0.10412353 8:0.13563784 9:0.66666667 10:0.66666667 11:1 12:0.54275093 \n1 1:0.29985269 2:0.15227923 3:0.40740741 4:0.40740741 5:1.0737095 6:1.0299592 7:0.14491725 8:0.14925884 9:0.33333333 10:0.33333333 11:0.71428571 12:0.26394052 \n0.6301222023777732 1:0.10859109 2:0.24831604 3:0.40740741 4:0.85185185 5:1.6054068 6:1.8029346 7:0.088534731 8:0.15962233 9:0.33333333 10:0.33333333 11:0.85714286 12:0.51301115 \n1 1:0.092289389 2:0.0089160306 3:0.18518519 4:0.25925926 5:1.9459016 6:1.151154 7:0.12682221 8:0.14599189 9:0 10:0 11:1 12:1 \n1 1:0.076182529 2:0.13044147 3:0.25925926 4:0.33333333 5:1.2695798 6:1.3991432 7:0.17601305 8:0.24626745 9:0 10:0.33333333 11:0.57142857 12:0.12267658 \n1 1:0.1050862 2:0.12580693 3:0.40740741 4:0.44444444 5:1.5311118 6:1.0905514 7:0.16892631 8:0.18422282 9:0.33333333 10:0.33333333 11:0.85714286 12:0.28624535 \n0.02463299257260898 1:0.83702495 2:0.13273707 3:0.59259259 4:0.77777778 5:123.6953 6:1.2190542 7:0.010755539 8:0.013111585 9:0.33333333 10:0.33333333 11:1 12:0.76579926 \n1 1:0.23028494 2:0.15717797 3:0.33333333 4:0.44444444 5:8.7867634 6:1.1220174 7:0.11765139 8:0.13200691 9:0 10:0 11:0.85714286 12:0.71375465 \n1 1:0 2:0.31259506 3:0.14814815 4:0.14814815 5:1.015675 6:1.6646921 7:0.048351156 8:0.080489789 9:0 10:0 11:0.42857143 12:0.022304833 \n1 1:0.34081492 2:0.54512409 3:0.22222222 4:0.37037037 5:1.5514825 6:1.3158168 7:0.096633582 8:0.12715209 9:0 10:0 11:0.28571429 12:0.05204461 \n0.7497890303640453 1:0.088637205 2:0.42005402 3:0.2962963 4:0.59259259 5:19.561825 6:1.1821448 7:0.1368553 8:0.16178278 9:0 10:0.33333333 11:0.71428571 12:0.14498141 \n0.05000069504791332 1:0.36695588 2:0.089446534 3:0.2962963 4:0.33333333 5:1116.4913 6:1.2218075 7:0.015596534 8:0.019055962 9:0 10:0 11:1 12:0.62453532 \n1 1:0.081497581 2:0.15867736 3:0.14814815 4:0.25925926 5:1.4052575 6:1.0473377 7:0.15394593 8:0.16123338 9:0 10:0 11:0.85714286 12:0.38289963 \n1 1:0.27852777 2:0.054228232 3:0.25925926 4:0.2962963 5:8.5732857 6:1.0465382 7:0.10388622 8:0.10872089 9:0 10:0 11:1 12:0.62453532 \n1 1:0.17900315 2:0.12070137 3:0.2962963 4:0.33333333 5:6.0211705 6:1.1971826 7:0.15615173 8:0.18694213 9:0 10:0 11:0.85714286 12:0.71375465 \n1 1:0.090579921 2:0.29569364 3:0.37037037 4:0.62962963 5:1.8079452 6:1.2405971 7:0.14421983 8:0.1789187 9:0.66666667 10:0.66666667 11:0.71428571 12:0.35315985 \n1 1:0.092447159 2:0.092843136 3:0.48148148 4:0.55555556 5:1.5399752 6:1.212383 7:0.12266983 8:0.14872282 9:0.33333333 10:0.33333333 11:0.85714286 12:0.38289963 \n1 1:0.35518597 2:0.059568284 3:0.25925926 4:0.25925926 5:1.0214576 6:1.0179283 7:0.10693722 8:0.10885442 9:0 10:0 11:1 12:0.79182156 \n1 1:0.2674969 2:0.080452268 3:0.22222222 4:0.33333333 5:3.0756572 6:1.6708672 7:0.093985153 8:0.1570367 9:0 10:0 11:1 12:0.85873606 \n1 1:0.35981822 2:0.016209577 3:0.33333333 4:0.37037037 5:1.66471 6:1.0205272 7:0.13369798 8:0.13644243 9:0 10:0 11:0.42857143 12:0.048327138 \n1 1:0.22661703 2:0.019944026 3:0.22222222 4:0.25925926 5:5.1521595 6:1.0281496 7:0.1181386 8:0.12146416 9:0 10:0 11:1 12:0.94795539 \n0.818422661530228 1:0.19746466 2:0.021847191 3:0.33333333 4:0.40740741 5:44.725249 6:1.0650838 7:0.13809751 8:0.14708542 9:0.33333333 10:0.33333333 11:1 12:0.94795539 \n1 1:0.25117237 2:0.081983635 3:0.25925926 4:0.2962963 5:1.2715518 6:1.1967205 7:0.11867157 8:0.14201671 9:0 10:0 11:0.85714286 12:0.69888476 \n1 1:0.03959773 2:0.076625602 3:0.48148148 4:0.51851852 5:1.3520351 6:1.1045532 7:0.22726359 8:0.25102472 9:0.33333333 10:0.33333333 11:0.85714286 12:0.37918216 \n1 1:0.20511411 2:0.094928451 3:0.37037037 4:0.48148148 5:1.7107127 6:1.1565812 7:0.15100303 8:0.17464726 9:0.33333333 10:0.33333333 11:0.71428571 12:0.23420074 \n1 1:0.031460284 2:0.11142242 3:0.40740741 4:0.51851852 5:1.6974102 6:1.0928871 7:0.17155994 8:0.18749565 9:0.33333333 10:0.33333333 11:1 12:0.85873606 \n1 1:0.40146255 2:0.6012505 3:0.2962963 4:0.48148148 5:1.2876098 6:1.0424047 7:0.078171495 8:0.081486332 9:0 10:0 11:0.71428571 12:0.13754647 \n1 1:0.18094152 2:0.056475333 3:0.48148148 4:0.48148148 5:1.0799262 6:1.3471698 7:0.15531148 8:0.20923093 9:0.33333333 10:0.33333333 11:1 12:0.79182156 \n1 1:0.09535798 2:0.088075231 3:0.37037037 4:0.62962963 5:1.0815604 6:1.3370882 7:0.13747749 8:0.18381952 9:0.33333333 10:0.33333333 11:0.85714286 12:0.26394052 \n1 1:0.34854542 2:0.055630507 3:0.22222222 4:0.25925926 5:2.7098583 6:1.1226242 7:0.12309983 8:0.13819485 9:0 10:0 11:1 12:0.95539033 \n1 1:0.043234433 2:0.090332892 3:0.37037037 4:0.44444444 5:2.5112548 6:1.0986678 7:0.17191237 8:0.18887458 9:0.66666667 10:0.66666667 11:1 12:0.94795539 \n1 1:0.1079363 2:0.10829748 3:0.66666667 4:0.7037037 5:1.5851405 6:1.4005888 7:0.14348317 8:0.20096093 9:0.33333333 10:0.33333333 11:0.57142857 12:0.12267658 \n1 1:0.20332265 2:0.31427219 3:0.40740741 4:0.48148148 5:1.221432 6:1.3261477 7:0.13615434 8:0.18056076 9:0.33333333 10:0.33333333 11:0.85714286 12:0.71375465 \n1 1:0.10743593 2:0.35637182 3:0.25925926 4:0.48148148 5:3.0315159 6:1.7587339 7:0.10839187 8:0.19063245 9:0.33333333 10:0.66666667 11:0.71428571 12:0.25650558 \n1 1:0.19947165 2:0.025905444 3:0.22222222 4:0.33333333 5:1.2007822 6:1.1168218 7:0.15342599 8:0.17134949 9:0 10:0 11:1 12:0.76579926 \n0.04966018321755805 1:0.40577348 2:0.10744213 3:0.2962963 4:0.33333333 5:730.6388 6:1.3246675 7:0.032372435 8:0.042882713 9:0 10:0 11:1 12:0.62453532 \n1 1:0.22603944 2:0.066179733 3:0.2962963 4:0.55555556 5:2.6608613 6:1.1252143 7:0.14154876 8:0.1592727 9:0.33333333 10:0.33333333 11:0.57142857 12:0.089219331 \n1 1:0.22681382 2:0.088907009 3:0.22222222 4:0.22222222 5:1.6772365 6:1.1729945 7:0.12966913 8:0.15210117 9:0 10:0 11:0.85714286 12:0.35687732 \n0.6858412437973928 1:0.85908245 2:0.39832992 3:0.2962963 4:0.37037037 5:1.0211875 6:1.4876346 7:0.6722081 8:1 9:0 10:0 11:0.57142857 12:0.085501859 \n1 1:0.15751107 2:0.044454383 3:0.37037037 4:0.40740741 5:1.7842947 6:1.0577638 7:0.15271413 8:0.16153548 9:0.33333333 10:0.33333333 11:0.71428571 12:0.23048327 \n1 1:0.24745404 2:0.059793822 3:0.25925926 4:0.25925926 5:2.0280967 6:1.0066063 7:0.10259596 8:0.10327374 9:0 10:0 11:0.71428571 12:0.18215613 \n1 1:0.16448283 2:0.042733928 3:0.2962963 4:0.33333333 5:1.6393361 6:1.0653632 7:0.063816766 8:0.067988037 9:0 10:0 11:0.71428571 12:0.15241636 \n1 1:0.39399478 2:0.011106902 3:0.22222222 4:0.2962963 5:3.9415745 6:1.0180719 7:0.12115918 8:0.12334876 9:0 10:0 11:0.42857143 12:0.12267658 \n0.1912094928903856 1:0.25703281 2:0.015838899 3:0.33333333 4:0.33333333 5:3.4535671 6:1.0093912 7:0.17825818 8:0.17993225 9:0.33333333 10:0.33333333 11:0.42857143 12:0.066914498 \n0.2300968533388165 1:0.053261917 2:0.23439166 3:0.2962963 4:0.40740741 5:6.9724493 6:1.2159621 7:0.1007531 8:0.12251195 9:0.66666667 10:0.66666667 11:1 12:0.94795539 \n1 1:0.082519522 2:0.48919739 3:0.074074074 4:0.11111111 5:1.3700419 6:1.4752413 7:0.077679316 8:0.11459573 9:0 10:0 11:0.28571429 12:0.011152416 \n1 1:0.62822559 2:0.064054137 3:0.22222222 4:0.40740741 5:1.1885487 6:1.1090764 7:0.099053948 8:0.1098584 9:0 10:0 11:0.71428571 12:0.19330855 \n0.005236641461169589 1:0.30896969 2:0.099105868 3:0.55555556 4:0.66666667 5:92.459822 6:1.112007 7:0.054556996 8:0.060667764 9:0.33333333 10:0.33333333 11:1 12:1 \n1 1:0.21289747 2:0.26028472 3:0.2962963 4:0.37037037 5:4.2891547 6:1.156818 7:0.1262863 8:0.14609026 9:0 10:0 11:0.85714286 12:0.69888476 \n1 1:0.088402709 2:0.1990739 3:0.22222222 4:0.25925926 5:2.4946921 6:1.4581415 7:0.073676205 8:0.10743033 9:0 10:0 11:0.57142857 12:0.14126394 \n1 1:0.23104113 2:0.071942142 3:0.14814815 4:0.18518519 5:2.2404617 6:1.046978 7:0.11508274 8:0.12048909 9:0 10:0 11:0.28571429 12:0.022304833 \n1 1:0.11077937 2:0.059504907 3:0.33333333 4:0.37037037 5:2.0151668 6:1.1134442 7:0.12352396 8:0.13753703 9:0 10:0 11:0.85714286 12:0.39033457 \n1 1:0.11971755 2:0.0088014869 3:0.074074074 4:0.074074074 5:1.6393118 6:1.020233 7:0.13312103 8:0.13581447 9:0 10:0 11:0.14285714 12:0.0074349442 \n1 1:0.32542971 2:0.024939564 3:0.2962963 4:0.2962963 5:3.2455936 6:1.0486717 7:0.13475028 8:0.1413088 9:0 10:0 11:1 12:0.94795539 \n1 1:0.49029527 2:0.19600516 3:0.25925926 4:0.37037037 5:3.1903687 6:1.0465988 7:0.11231549 8:0.11754926 9:0 10:0 11:0.42857143 12:0.05204461 \n1 1:0.22325237 2:0.051931736 3:0.22222222 4:0.2962963 5:1.3496187 6:1.0472573 7:0.14671599 8:0.1536494 9:0 10:0 11:1 12:0.76579926 \n1 1:0.17120473 2:0.035517748 3:0.22222222 4:0.25925926 5:3.6804791 6:1.0514539 7:0.15592763 8:0.16395071 9:0 10:0 11:0.85714286 12:0.71375465 \n1 1:0.0766536 2:0.096587954 3:0.25925926 4:0.48148148 5:10.521624 6:1.175521 7:0.18142303 8:0.21326659 9:0 10:0.33333333 11:0.85714286 12:0.28624535 \n1 1:0.078381247 2:0.026099699 3:0.14814815 4:0.14814815 5:1.6130291 6:1.2657775 7:0.15133402 8:0.1915552 9:0 10:0 11:0.28571429 12:0.029739777 \n1 1:0.37211548 2:0.18113978 3:0.33333333 4:0.37037037 5:1.1161433 6:1.1589121 7:0.091345263 8:0.10586113 9:0 10:0 11:0.71428571 12:0.18215613 \n1 1:0.28381452 2:0.039172654 3:0.2962963 4:0.48148148 5:1.6280927 6:1.2394113 7:0.13645182 8:0.16911993 9:0 10:0 11:1 12:0.79182156 \n1 1:0.22902078 2:0.68211392 3:0.48148148 4:0.51851852 5:1.2494961 6:1.2101401 7:0.10266101 8:0.12423421 9:0.33333333 10:0.33333333 11:0.85714286 12:0.23791822 \n1 1:0.26158831 2:0.086642172 3:0.25925926 4:0.33333333 5:2.1298413 6:1.0249735 7:0.13516838 8:0.138544 9:0 10:0 11:1 12:0.62453532 \n1 1:0.1037849 2:0.083445711 3:0.44444444 4:0.48148148 5:1.249909 6:1.0005663 7:0.13324985 8:0.1333253 9:0.66666667 10:0.66666667 11:1 12:1 \n1 1:0.029363944 2:0.31611497 3:0.22222222 4:0.25925926 5:1.006151 6:1.1922358 7:0.16864155 8:0.20106049 9:0 10:0.33333333 11:0.42857143 12:0.040892193 \n1 1:0.14076701 2:0.045010382 3:0.37037037 4:0.40740741 5:1.8387703 6:1.6488339 7:0.14507156 8:0.23919891 9:0 10:0.33333333 11:0.57142857 12:0.12639405 \n1 1:0.063595154 2:0.047645528 3:0.33333333 4:0.51851852 5:2.8186961 6:1.3316979 7:0.18907973 8:0.25179707 9:0 10:0.33333333 11:0.71428571 12:0.21933086 \n1 1:0.26013102 2:0.14882157 3:0.2962963 4:0.7037037 5:2.0678749 6:3.0100185 7:0.030704312 8:0.092420547 9:0.33333333 10:0.66666667 11:1 12:0.49814126 \n0.531729367894706 1:0.2908943 2:0.12255585 3:0.48148148 4:0.48148148 5:1.4578584 6:1.4526266 7:0.12260752 8:0.17810295 9:0.33333333 10:0.33333333 11:0.57142857 12:0.11524164 \n1 1:0.19603714 2:0.14183457 3:0.44444444 4:0.48148148 5:1.0603235 6:1.038445 7:0.1503014 8:0.15607974 9:0.33333333 10:0.33333333 11:1 12:0.54275093 \n1 1:0.21202143 2:0.028676034 3:0.074074074 4:0.074074074 5:1.8084096 6:1.0018097 7:0.18872859 8:0.18907014 9:0 10:0 11:0.14285714 12:0.0074349442 \n1 1:0.29495751 2:0.015150846 3:0.22222222 4:0.2962963 5:2.0080163 6:1.0273027 7:0.12915021 8:0.13267635 9:0 10:0 11:1 12:0.94795539 \n0.5115431205804403 1:0.11093058 2:0.11079291 3:0.37037037 4:0.55555556 5:3.6509659 6:1.1318676 7:0.17461487 8:0.19764091 9:0.66666667 10:0.66666667 11:0.85714286 12:0.24163569 \n1 1:0.23822026 2:0.065847561 3:0.37037037 4:0.40740741 5:1.0703287 6:1.0978132 7:0.20170613 8:0.22143564 9:0.33333333 10:0.33333333 11:0.71428571 12:0.18959108 \n1 1:0.090762999 2:0.11569082 3:0.22222222 4:0.25925926 5:1.3998939 6:1.2862584 7:0.12609651 8:0.16219269 9:0 10:0 11:1 12:1 \n1 1:0.12381614 2:0.19121114 3:0.48148148 4:0.7037037 5:2.2855357 6:2.8053319 7:0.058382489 8:0.16378226 9:0.33333333 10:0.33333333 11:0.85714286 12:0.51301115 \n0.0331550442822845 1:0.34815845 2:0.3832459 3:0.48148148 4:0.48148148 5:59.561744 6:1.0147871 7:0.057137134 8:0.057982026 9:0.66666667 10:0.66666667 11:1 12:0.7472119 \n1 1:0.17719061 2:0.048912255 3:0.2962963 4:0.40740741 5:1.7099876 6:1.145438 7:0.13943614 8:0.15971545 9:0 10:0 11:1 12:0.95539033 \n0.3159689660525235 1:0.12676616 2:0.12990762 3:0.2962963 4:0.48148148 5:5.3660051 6:1.4729181 7:0.11350645 8:0.16718571 9:0.33333333 10:0.66666667 11:0.85714286 12:0.39033457 \n1 1:0.23614107 2:0.10918711 3:0.22222222 4:0.25925926 5:1.1898341 6:1.2220387 7:0.16303719 8:0.19923777 9:0 10:0 11:1 12:0.95539033 \n0.5820144609938878 1:0.48291327 2:0.53314448 3:0.33333333 4:0.55555556 5:1.1738366 6:2.5223432 7:0.39645676 8:1 9:0.33333333 10:0.33333333 11:0.57142857 12:0.12267658 \n0.7607070862125184 1:0.2461202 2:0.14591395 3:0.37037037 4:0.59259259 5:6.9354063 6:1.7101997 7:0.024042343 8:0.041117208 9:0.66666667 10:0.66666667 11:1 12:0.7472119 \n1 1:0.25508117 2:0.65450145 3:0.37037037 4:0.37037037 5:1.2413058 6:1.1067991 7:0.067886237 8:0.075136426 9:0 10:0 11:0.71428571 12:0.18587361 \n1 1:0.23197033 2:0.12623866 3:0.074074074 4:0.074074074 5:1.191864 6:1.0815927 7:0.12593097 8:0.13620602 9:0 10:0 11:0.14285714 12:0.0074349442 \n1 1:0.22230505 2:0.052903631 3:0.25925926 4:0.2962963 5:1.3374019 6:1.0585624 7:0.16501081 8:0.17467423 9:0 10:0 11:0.71428571 12:0.27509294 \n1 1:0.053680071 2:0.048359894 3:0.14814815 4:0.18518519 5:1.4291263 6:1.0729808 7:0.11730879 8:0.12587008 9:0 10:0 11:0.71428571 12:0.14126394 \n1 1:0.21530068 2:0.049495409 3:0.22222222 4:0.33333333 5:1.9480686 6:1.1214163 7:0.13876861 8:0.15561738 9:0 10:0 11:0.85714286 12:0.4795539 \n0.7092617080152631 1:0.96747045 2:0.81239987 3:0.37037037 4:0.51851852 5:3.2778133 6:1.0781725 7:0.073293924 8:0.079023495 9:0 10:0 11:0.71428571 12:0.18587361 \n0.5492257488377997 1:0.36851892 2:0.041905888 3:0.2962963 4:0.40740741 5:10.929514 6:1.3093451 7:0.10235672 8:0.13402027 9:0 10:0 11:0.71428571 12:0.2527881 \n0.5689014705092246 1:0.16547122 2:0.48378154 3:0.59259259 4:0.74074074 5:9.3233663 6:2.1429663 7:0.0507205 8:0.10869232 9:0.33333333 10:0.66666667 11:0.85714286 12:0.38289963 \n1 1:0.097509522 2:0.010459148 3:0.25925926 4:0.48148148 5:8.392177 6:1.0078266 7:0.12809874 8:0.12910132 9:0 10:0 11:0.71428571 12:0.35315985 \n1 1:0.64074111 2:0.52173935 3:0.14814815 4:0.14814815 5:1.1766478 6:1.170022 7:0.094831072 8:0.11095444 9:0 10:0 11:0.28571429 12:0.022304833 \n1 1:0.35531325 2:0.0091300042 3:0.14814815 4:0.22222222 5:4.5723026 6:1.0420593 7:0.1105776 8:0.11522842 9:0 10:0 11:0.28571429 12:0.022304833 \n1 1:0.12082368 2:0.058114221 3:0.22222222 4:0.25925926 5:1.6915565 6:1.0533274 7:0.14628285 8:0.15408373 9:0 10:0 11:1 12:1 \n0.695181037235441 1:0.39255021 2:0.028563178 3:0.33333333 4:0.55555556 5:5.7405649 6:1.3945843 7:0.1036538 8:0.14455396 9:0.33333333 10:0.33333333 11:0.71428571 12:0.21933086 \n1 1:0.075273673 2:0.21119009 3:0.22222222 4:0.37037037 5:3.5661884 6:1.0150648 7:0.16478661 8:0.16726909 9:0 10:0 11:0.85714286 12:0.38289963 \n1 1:0.17744871 2:0.048163937 3:0.11111111 4:0.22222222 5:6.3175953 6:1.0461428 7:0.1437989 8:0.15043418 9:0 10:0 11:0.28571429 12:0.022304833 \n1 1:0.44254843 2:0.047796956 3:0.18518519 4:0.44444444 5:1.7815286 6:1.087653 7:0.096432197 8:0.10488477 9:0 10:0 11:0.71428571 12:0.19330855 \n1 1:0.34600626 2:0.075139891 3:0.59259259 4:0.62962963 5:1.0156155 6:1.0515363 7:0.12792981 8:0.13452284 9:0.66666667 10:0.66666667 11:1 12:0.49814126 \n0.3666808027672442 1:0.27323074 2:0.12028065 3:0.22222222 4:0.25925926 5:4.5686186 6:1.3138406 7:0.10643937 8:0.13984437 9:0 10:0 11:1 12:0.85873606 \n1 1:0.33405254 2:0.27362106 3:0.2962963 4:0.37037037 5:5.0530447 6:1.150407 7:0.10291438 8:0.11839343 9:0 10:0 11:0.28571429 12:0.048327138 \n1 1:0.24460175 2:0.37546067 3:0.40740741 4:0.48148148 5:1.1434413 6:1.291187 7:0.13802949 8:0.17822188 9:0.66666667 10:0.66666667 11:1 12:0.62453532 \n1 1:0.25093847 2:0.22445161 3:0.074074074 4:0.48148148 5:1.6001326 6:1.3018323 7:0.15081365 8:0.19633407 9:0 10:0 11:1 12:0.49814126 \n0.1638576522705739 1:0.59091161 2:0.013623475 3:0 4:0.037037037 5:3.6515439 6:1.0449664 7:0.19450102 8:0.20324703 9:0 10:0 11:0.42857143 12:0.066914498 \n0.005653965494691946 1:0.91551782 2:0.099738853 3:0.22222222 4:0.81481481 5:6.7785589 6:3.5082966 7:0.006957326 8:0.024408364 9:0 10:0 11:0.85714286 12:0.37918216 \n1 1:0.16466281 2:0.074610495 3:0.37037037 4:0.44444444 5:3.2317187 6:2.2848728 7:0.044423079 8:0.10150109 9:0.33333333 10:0.66666667 11:1 12:1 \n1 1:0.14165077 2:0.039465156 3:0.25925926 4:0.2962963 5:6.588552 6:1.0734693 7:0.098416006 8:0.10564656 9:0 10:0 11:0.85714286 12:0.39033457 \n0.7184426208666908 1:0.19233068 2:0.068217908 3:0.37037037 4:0.40740741 5:12.860639 6:1.0443469 7:0.095430592 8:0.099662642 9:0.33333333 10:0.33333333 11:1 12:1 \n0.2312993597113826 1:0.20514251 2:0.13513714 3:0.59259259 4:0.62962963 5:21.853294 6:1.1847892 7:0.12303404 8:0.1457694 9:0.33333333 10:0.66666667 11:1 12:0.54275093 \n0.02601993577861748 1:0.2867691 2:0.096687439 3:0.18518519 4:0.40740741 5:113.0074 6:1.7703928 7:0.07379055 8:0.13063826 9:0 10:0 11:1 12:0.49070632 \n1 1:0.13714103 2:0.33879509 3:0.44444444 4:0.62962963 5:2.293784 6:1.1825002 7:0.17260668 8:0.20410742 9:0.33333333 10:0.66666667 11:1 12:0.76579926 \n0.2762745673156535 1:0.72078057 2:0.6490332 3:0.44444444 4:0.59259259 5:1.2815367 6:1.4107941 7:0.076909667 8:0.10850371 9:0.33333333 10:0.33333333 11:0.85714286 12:0.51301115 \n0.01585574867815955 1:0.44590328 2:0.0059916321 3:0.037037037 4:0.037037037 5:14.89676 6:1.0061073 7:0.19883419 8:0.20004853 9:0 10:0 11:0.71428571 12:0.19702602 \n1 1:0.35882419 2:0.13318886 3:0.18518519 4:0.37037037 5:1.2631112 6:1.1094677 7:0.098712351 8:0.10951817 9:0 10:0 11:0.71428571 12:0.19702602 \n0.430064612245666 1:0.18230427 2:0.19185365 3:0.48148148 4:0.51851852 5:7.8339444 6:1.3320282 7:0.079351875 8:0.10569894 9:0.33333333 10:0.66666667 11:1 12:1 \n0.3663548545635941 1:0.69390915 2:0.49734768 3:0.18518519 4:0.2962963 5:8.0070481 6:1.6798317 7:0.59529773 8:1 9:0 10:0 11:0.85714286 12:0.26394052 \n1 1:0.019833601 2:0.013959841 3:0.11111111 4:0.14814815 5:1.2431481 6:1.0299122 7:0.13117171 8:0.13509534 9:0 10:0 11:0.42857143 12:0.022304833 \n1 1:0.10511725 2:0.17514274 3:0.40740741 4:0.48148148 5:1.3960682 6:1.0857831 7:0.15464631 8:0.16791235 9:0.66666667 10:0.66666667 11:1 12:0.62453532 \n0.3236742653951355 1:0.0089033763 2:0.73350757 3:0.40740741 4:0.55555556 5:1.006062 6:1.4213306 7:0.7035661 8:1 9:0.66666667 10:0.66666667 11:0.85714286 12:0.51672862 \n0.2841310494623688 1:0.22157118 2:0.18226229 3:0.22222222 4:0.33333333 5:3.7459398 6:1.4507426 7:0.12907596 8:0.187256 9:0.33333333 10:0.33333333 11:0.42857143 12:0.048327138 \n0.9227042605682937 1:0.23464977 2:0.023161198 3:0.37037037 4:0.62962963 5:1.9346928 6:2.5040015 7:0.025085314 8:0.062813666 9:0.33333333 10:0.33333333 11:1 12:1 \n0.4001007935288684 1:0.21426895 2:0.16765528 3:0.18518519 4:0.2962963 5:12.532365 6:1.3185358 7:0.12049934 8:0.15888269 9:0 10:0 11:1 12:0.76579926 \n1 1:0.34818511 2:0.099616879 3:0.51851852 4:0.66666667 5:1.6744561 6:1.0001996 7:0.11497384 8:0.11499679 9:0.33333333 10:0.33333333 11:0.85714286 12:0.37918216 \n0.287092542767251 1:0.15246389 2:0.01615347 3:0.25925926 4:0.37037037 5:3.3519091 6:1.4346136 7:0.13338287 8:0.19135288 9:0 10:0.33333333 11:0.71428571 12:0.27509294 \n1 1:0.08682019 2:0.23014934 3:0.48148148 4:0.62962963 5:2.1715082 6:1.2463803 7:0.11735521 8:0.14626922 9:0.33333333 10:0.33333333 11:0.85714286 12:0.39033457 \n1 1:0.09809196 2:0.17121256 3:0.40740741 4:0.48148148 5:1.6515217 6:1.378667 7:0.14438661 8:0.19906105 9:0.33333333 10:0.33333333 11:1 12:0.54275093 \n1 1:0.24167731 2:0.6870359 3:0.33333333 4:0.40740741 5:2.1638024 6:1.2982977 7:0.18230843 8:0.23669061 9:0 10:0.33333333 11:0.71428571 12:0.092936803 \n1 1:0.097277101 2:0.11164015 3:0.55555556 4:0.7037037 5:1.7834559 6:1.1264133 7:0.11660023 8:0.13134005 9:0.33333333 10:0.33333333 11:0.71428571 12:0.35315985 \n0.2954918502112491 1:0 2:0.74006792 3:0.40740741 4:0.40740741 5:4.1269812 6:1.6884896 7:0.59224527 8:1 9:0 10:0 11:0.71428571 12:0.15241636 \n1 1:0.068918872 2:0.045201287 3:0.44444444 4:0.51851852 5:1.4193312 6:1.5900431 7:0.16964827 8:0.26974806 9:0.66666667 10:0.66666667 11:1 12:0.94795539 \n1 1:0.29874539 2:0.09409455 3:0.55555556 4:0.62962963 5:1.5602131 6:1.1199731 7:0.12797493 8:0.14332848 9:0.33333333 10:0.33333333 11:0.85714286 12:0.4795539 \n1 1:0.43003863 2:0.066434991 3:0.22222222 4:0.22222222 5:9.8732323 6:1.149301 7:0.11944527 8:0.13727857 9:0 10:0 11:0.71428571 12:0.19330855 \n1 1:0.21651011 2:0.11539056 3:0.55555556 4:0.59259259 5:1.8433703 6:1.1276762 7:0.1480285 8:0.16692823 9:0.33333333 10:0.33333333 11:0.85714286 12:0.71375465 \n1 1:0.096304111 2:0.089891115 3:0.22222222 4:0.2962963 5:6.0618355 6:1.2998127 7:0.14477019 8:0.18817414 9:0 10:0 11:0.85714286 12:0.39033457 \n1 1:0.2364295 2:0.034976581 3:0.25925926 4:0.25925926 5:1.0524002 6:1.0909822 7:0.090784498 8:0.099044272 9:0 10:0 11:1 12:1 \n1 1:0.16200566 2:0.13952814 3:0.48148148 4:0.51851852 5:1.1457849 6:1.1579001 7:0.10936987 8:0.12663939 9:0.33333333 10:0.33333333 11:0.85714286 12:0.26394052 \n1 1:0.089727428 2:0.17056401 3:0.37037037 4:0.51851852 5:1.2714267 6:1.0369804 7:0.16190619 8:0.16789354 9:0.66666667 10:0.66666667 11:0.85714286 12:0.39033457 \n1 1:0.17475956 2:0.21399225 3:0.11111111 4:0.22222222 5:3.1734313 6:1.0891802 7:0.13542077 8:0.14749762 9:0 10:0 11:0.28571429 12:0.022304833 \n1 1:0.040627468 2:0.48566586 3:0.22222222 4:0.22222222 5:2.1972517 6:1.3902612 7:0.12838957 8:0.17849504 9:0 10:0.33333333 11:0.57142857 12:0.089219331 \n1 1:0.43898304 2:0.2524987 3:0.2962963 4:0.2962963 5:4.5677418 6:1.1348457 7:0.10395797 8:0.11797626 9:0 10:0 11:0.71428571 12:0.19702602 \n1 1:0.1912595 2:0.049486581 3:0.2962963 4:0.33333333 5:3.0616232 6:1.1085434 7:0.12460835 8:0.13813376 9:0 10:0 11:1 12:0.7472119 \n1 1:0.10791071 2:0.08958685 3:0.2962963 4:0.48148148 5:2.107936 6:1.1302157 7:0.19973132 8:0.22573948 9:0 10:0.33333333 11:0.57142857 12:0.11524164 \n0.3286715633095929 1:0.21980748 2:0.099632345 3:0.33333333 4:0.62962963 5:4.5003116 6:2.0076762 7:0.087802173 8:0.17627833 9:0.66666667 10:0.66666667 11:1 12:0.95539033 \n1 1:0.24101186 2:0.28306689 3:0.2962963 4:0.40740741 5:17.28664 6:1.0824016 7:0.17883018 8:0.19356607 9:0 10:0.33333333 11:0.57142857 12:0.11895911 \n1 1:0.20101965 2:0.051858551 3:0.22222222 4:0.33333333 5:4.2811604 6:1.2241168 7:0.11745274 8:0.14377588 9:0 10:0 11:1 12:0.7472119 \n0.01522308642294001 1:0.58150481 2:0.11543729 3:0.59259259 4:0.7037037 5:48.096633 6:1.0745443 7:0.048536552 8:0.052154677 9:0.66666667 10:0.66666667 11:1 12:0.94795539 \n1 1:0.17180797 2:0.18472129 3:0.25925926 4:0.33333333 5:6.6557776 6:1.452371 7:0.076557882 8:0.11119045 9:0 10:0 11:0.85714286 12:0.32342007 \n1 1:0.20673127 2:0.027985667 3:0.22222222 4:0.25925926 5:11.00504 6:1.1028204 7:0.17566663 8:0.19372874 9:0 10:0 11:1 12:0.79182156 \n1 1:0.10839803 2:0.033993706 3:0.44444444 4:0.59259259 5:2.9975662 6:1.0556052 7:0.22575453 8:0.23830766 9:0.33333333 10:0.33333333 11:0.71428571 12:0.17472119 \n1 1:0.26317078 2:0.053925991 3:0.25925926 4:0.44444444 5:5.8447238 6:1.0669105 7:0.078670049 8:0.0839339 9:0 10:0 11:0.57142857 12:0.12267658 \n1 1:0.17646158 2:0.059912175 3:0.33333333 4:0.44444444 5:3.7330245 6:1.2457439 7:0.085504384 8:0.10651657 9:0 10:0 11:1 12:1 \n1 1:0.29852854 2:0.23203889 3:0.44444444 4:0.48148148 5:1.5722963 6:1.0719709 7:0.11983638 8:0.12846111 9:0.33333333 10:0.33333333 11:0.71428571 12:0.23420074 \n1 1:0.086529704 2:0.10672038 3:0.22222222 4:0.48148148 5:1.0062735 6:1.1183877 7:0.20215796 8:0.22609097 9:0 10:0 11:0.57142857 12:0.12267658 \n0.9547322480912058 1:0.28342326 2:0.05469449 3:0.37037037 4:0.59259259 5:4.7224868 6:2.3557266 7:0.063986845 8:0.15073551 9:0.33333333 10:0.33333333 11:0.85714286 12:0.69888476 \n1 1:0.064809683 2:0.17073335 3:0.2962963 4:0.33333333 5:2.0035579 6:1.3263377 7:0.17853803 8:0.23680172 9:0.66666667 10:0.66666667 11:0.85714286 12:0.32342007 \n1 1:0.1526821 2:0.049814385 3:0.51851852 4:0.55555556 5:7.4281362 6:1.1544962 7:0.13521134 8:0.15610097 9:0.33333333 10:0.33333333 11:0.57142857 12:0.085501859 \n1 1:0.36260041 2:0.11339279 3:0.22222222 4:0.37037037 5:1.822367 6:1.2138999 7:0.083716645 8:0.10162363 9:0 10:0 11:0.71428571 12:0.17472119 \n1 1:0.12218407 2:0.012832436 3:0.11111111 4:0.22222222 5:1.017811 6:1.1447946 7:0.16120588 8:0.18454763 9:0 10:0 11:0.28571429 12:0.033457249 \n1 1:0.20866111 2:0.08947589 3:0.22222222 4:0.2962963 5:2.9304095 6:1.223549 7:0.11916243 8:0.14580108 9:0 10:0 11:1 12:0.94795539 \n1 1:0.1586224 2:0.034789217 3:0.22222222 4:0.33333333 5:1.2037911 6:1.0295857 7:0.074672362 8:0.076881597 9:0 10:0 11:0.57142857 12:0.10037175 \n1 1:0 2:0.050259225 3:0.14814815 4:0.18518519 5:1.0139699 6:1.2053954 7:0.058515567 8:0.070534394 9:0 10:0 11:0.42857143 12:0.029739777 \n0.0009454234879510692 1:0.59015328 2:0.040869462 3:0.37037037 4:0.77777778 5:51.319694 6:1.1183974 7:0.031631486 8:0.035376571 9:0.33333333 10:0.66666667 11:1 12:0.95539033 \n0.8477414648078244 1:0.10220836 2:0.07702692 3:0.59259259 4:0.66666667 5:1.4164101 6:1.7300451 7:0.12931526 8:0.22372122 9:0.33333333 10:0.33333333 11:0.57142857 12:0.12267658 \n1 1:0.094377397 2:0.086304178 3:0.2962963 4:0.2962963 5:2.7053073 6:1.0492838 7:0.12437219 8:0.13050172 9:0 10:0 11:0.85714286 12:0.49070632 \n0.8792122178211705 1:0.30710737 2:0.098969645 3:0.33333333 4:0.40740741 5:9.7043349 6:1.5716417 7:0.09932079 8:0.15609669 9:0.33333333 10:0.33333333 11:0.42857143 12:0.12267658 \n1 1:0.26276383 2:0.033327817 3:0.14814815 4:0.18518519 5:2.7246648 6:1.1139982 7:0.11478813 8:0.12787377 9:0 10:0 11:0.28571429 12:0.022304833 \n1 1:0.34421895 2:0.085378283 3:0.33333333 4:0.33333333 5:1.0825183 6:1.0798789 7:0.097048474 8:0.10480059 9:0 10:0 11:0.42857143 12:0.048327138 \n1 1:0.11704008 2:0.037460645 3:0.33333333 4:0.40740741 5:2.6696657 6:1.0132906 7:0.17424186 8:0.17655764 9:0.33333333 10:0.33333333 11:0.71428571 12:0.23791822 \n0.007374721192922096 1:0.42732511 2:0.005412192 3:0.2962963 4:0.59259259 5:51.043087 6:1.0109306 7:0.0056876872 8:0.0057498572 9:0.66666667 10:0.66666667 11:0.85714286 12:0.32713755 \n1 1:0.10710492 2:0.14525305 3:0.25925926 4:0.40740741 5:1.5113948 6:1.0003109 7:0.17741134 8:0.1774665 9:0 10:0 11:1 12:0.85873606 \n1 1:0.073080526 2:0.78855401 3:0.33333333 4:0.55555556 5:1.4526479 6:1.164102 7:0.11808495 8:0.13746293 9:0.33333333 10:0.33333333 11:0.85714286 12:0.49070632 \n1 1:0.24027354 2:0.1281897 3:0.48148148 4:0.51851852 5:21.426194 6:1.0668616 7:0.0073642211 8:0.0078566048 9:0.33333333 10:0.33333333 11:0.71428571 12:0.24535316 \n0.01792019996578958 1:0.128914 2:0.42441641 3:0.25925926 4:0.25925926 5:2.4557603 6:1.3119616 7:0.13106094 8:0.17194692 9:0 10:0.33333333 11:0.42857143 12:0.055762082 \n1 1:0.066386662 2:0.23194507 3:0.44444444 4:0.59259259 5:4.0620595 6:1.1092072 7:0.1505672 8:0.16701022 9:0.33333333 10:0.33333333 11:0.71428571 12:0.2527881 \n1 1:0.18640746 2:0.7832234 3:0.18518519 4:0.2962963 5:4.3311447 6:1.2423231 7:0.13390822 8:0.16635727 9:0 10:0.33333333 11:0.57142857 12:0.089219331 \n0.01011755097469574 1:0.6500438 2:0.081479226 3:0.40740741 4:0.55555556 5:133.65655 6:1.4070924 7:0.027413476 8:0.038573293 9:0 10:0 11:0.71428571 12:0.27509294 \n0.7186346866817989 1:0.25643342 2:0.067276355 3:0.25925926 4:0.48148148 5:7.5337452 6:1.2371869 7:0.052798975 8:0.065322199 9:0 10:0 11:0.57142857 12:0.12267658 \n1 1:0.25763041 2:0.033920748 3:0.33333333 4:0.37037037 5:1.5658277 6:1.1939389 7:0.12985306 8:0.15503661 9:0 10:0 11:0.85714286 12:0.69888476 \n0.9796151645361636 1:0.1399675 2:0.17267294 3:0.51851852 4:0.85185185 5:2.0212173 6:1.8900395 7:0.077699358 8:0.14685486 9:0.33333333 10:0.33333333 11:0.85714286 12:0.51672862 \n0.06423160403895965 1:0.75915911 2:0.16245451 3:0.40740741 4:0.51851852 5:111.23209 6:1.8141336 7:0.013493722 8:0.024479415 9:0.33333333 10:0.33333333 11:0.71428571 12:0.18959108 \n1 1:0.1556447 2:0.071945752 3:0.074074074 4:0.074074074 5:1.247232 6:1.1319466 7:0.14971375 8:0.16946798 9:0 10:0 11:0.14285714 12:0.0074349442 \n0.0443865680381767 1:0.59150714 2:0.056072737 3:0.22222222 4:0.59259259 5:66.914518 6:2.5786793 7:0.017881279 8:0.046110084 9:0 10:0 11:0.71428571 12:0.24535316 \n1 1:0.10734079 2:0.15134681 3:0.37037037 4:0.40740741 5:1.789679 6:1.4257355 7:0.17196185 8:0.24517212 9:0.66666667 10:0.66666667 11:0.85714286 12:0.71375465 \n0.3396415065842607 1:0 2:0.46184045 3:0.074074074 4:0.11111111 5:6.1037006 6:2.0254249 7:0.056319287 8:0.11407049 9:0 10:0 11:0.28571429 12:0.011152416 \n1 1:0.27054241 2:0.085912075 3:0.55555556 4:0.62962963 5:8.2479852 6:1.1640318 7:0.12414852 8:0.14451283 9:0.33333333 10:0.33333333 11:1 12:0.7472119 \n1 1:0.085458935 2:0.13247652 3:0.33333333 4:0.48148148 5:6.3540712 6:1.2369445 7:0.17396009 8:0.21517898 9:0.66666667 10:0.66666667 11:0.85714286 12:0.39033457 \n0.235214905603999 1:0.477893 2:0.041164311 3:0.40740741 4:0.7037037 5:36.586208 6:1.0442318 7:0.041931473 8:0.043786178 9:0.33333333 10:0.66666667 11:0.85714286 12:0.71375465 \n1 1:0.20516162 2:0.12348379 3:0.22222222 4:0.33333333 5:1.3284427 6:1.0782397 7:0.10085242 8:0.10874308 9:0 10:0 11:0.85714286 12:0.26394052 \n1 1:0.24751359 2:0.1548882 3:0.25925926 4:0.33333333 5:1.4386097 6:1.1306826 7:0.11244514 8:0.12713976 9:0 10:0 11:1 12:0.49070632 \n0.5828433793978975 1:0.092142644 2:0.20778725 3:0.44444444 4:0.48148148 5:9.0446286 6:1.0134483 7:0.18855432 8:0.19109006 9:0.33333333 10:0.66666667 11:0.85714286 12:0.26394052 \n1 1:0.55263817 2:0.84325185 3:0.25925926 4:0.2962963 5:1.875686 6:1.3319299 7:0.079067169 8:0.10531193 9:0 10:0 11:0.42857143 12:0.05204461 \n1 1:0.086425915 2:0.083584303 3:0.074074074 4:0.074074074 5:13.522123 6:1.0296277 7:0.18054629 8:0.18589545 9:0 10:0 11:0.14285714 12:0.0074349442 \n1 1:0.30676199 2:0.55277986 3:0.14814815 4:0.14814815 5:1.3617047 6:1.557636 7:0.070528084 8:0.10985708 9:0 10:0 11:0.14285714 12:0.014869888 \n0.01549869255070432 1:0.6547054 2:0.50724013 3:0.48148148 4:0.51851852 5:3.7660964 6:1.4121061 7:0.70816207 8:1 9:0.33333333 10:0.33333333 11:0.57142857 12:0.11524164 \n1 1:0.097686755 2:0.066012221 3:0.40740741 4:0.55555556 5:3.0721984 6:1.0863123 7:0.12155673 8:0.13204857 9:0.33333333 10:0.33333333 11:0.85714286 12:0.38289963 \n1 1:0.16885991 2:0.13350968 3:0.51851852 4:0.51851852 5:1.1240085 6:1.1012286 7:0.16920864 8:0.18633739 9:0.33333333 10:0.33333333 11:0.85714286 12:0.37918216 \n1 1:0.16671631 2:0.12292526 3:0.33333333 4:0.44444444 5:1.6098409 6:1.025475 7:0.17403888 8:0.17847252 9:0.33333333 10:0.33333333 11:0.71428571 12:0.19330855 \n1 1:0.31765201 2:0.43690813 3:0.18518519 4:0.25925926 5:8.3887318 6:1.0309764 7:0.075432427 8:0.077769054 9:0 10:0 11:0.57142857 12:0.12639405 \n0.0924211332301256 1:0.18916416 2:0.1723919 3:0.25925926 4:0.55555556 5:7.614207 6:1.0997358 7:0.14369604 8:0.15802768 9:0 10:0.33333333 11:1 12:0.95539033 \n1 1:0.049591972 2:0.11629216 3:0.33333333 4:0.51851852 5:1.192589 6:1.359345 7:0.14232777 8:0.19347254 9:0.66666667 10:0.66666667 11:1 12:1 \n1 1:0.081570145 2:0.13927208 3:0.25925926 4:0.40740741 5:4.3228383 6:1.3121543 7:0.20336561 8:0.26684706 9:0 10:0.33333333 11:0.42857143 12:0.11524164 \n1 1:0.24924094 2:0.076892997 3:0.18518519 4:0.33333333 5:4.4381814 6:1.4692667 7:0.10905505 8:0.16023096 9:0 10:0 11:1 12:0.62453532 \n0.7661054361749451 1:0.46565207 2:0.41616686 3:0.37037037 4:0.77777778 5:1.1595682 6:1.7801201 7:0.10695753 8:0.19039725 9:0.66666667 10:0.66666667 11:0.71428571 12:0.34944238 \n1 1:0 2:0.2972106 3:0.074074074 4:0.074074074 5:1.1179711 6:1.0052387 7:0.12506102 8:0.12571618 9:0 10:0 11:0.14285714 12:0.0074349442 \n1 1:0.33688824 2:0.013892872 3:0 4:0.037037037 5:3.821546 6:1.04381 7:0.20731086 8:0.21639315 9:0 10:0 11:0.42857143 12:0.066914498 \n1 1:0.63014572 2:0.041354824 3:0.33333333 4:0.44444444 5:1.0592528 6:1.0116125 7:0.10071002 8:0.10187952 9:0 10:0 11:0.71428571 12:0.23791822 \n1 1:0.57233805 2:0.083250024 3:0.2962963 4:0.37037037 5:1.7328926 6:1.1062053 7:0.10339227 8:0.11437308 9:0 10:0 11:0.71428571 12:0.19330855 \n1 1:0.26715081 2:0.042135158 3:0.51851852 4:0.51851852 5:9.9270749 6:1.1298229 7:0.13558246 8:0.15318416 9:0.33333333 10:0.33333333 11:0.85714286 12:0.69888476 \n1 1:0.16575492 2:0.15121219 3:0.48148148 4:0.62962963 5:1.7909604 6:1.6217232 7:0.094378549 8:0.15305588 9:0.33333333 10:0.33333333 11:0.85714286 12:0.26394052 \n1 1:0.40804062 2:0.067995446 3:0.22222222 4:0.37037037 5:1.3348765 6:1.2433918 7:0.11926005 8:0.14828698 9:0 10:0 11:1 12:0.79182156 \n1 1:0 2:0.058864501 3:0.037037037 4:0.074074074 5:1.3120052 6:1.0392273 7:0.18386805 8:0.1910807 9:0 10:0 11:0.14285714 12:0.0074349442 \n0.02740301821387188 1:0.63247694 2:0.18939004 3:0.2962963 4:0.74074074 5:208.77322 6:1.8698774 7:0.025400164 8:0.047495192 9:0 10:0.33333333 11:1 12:0.79182156 \n0.01898103393819384 1:0.17713842 2:0.27784947 3:0.44444444 4:0.62962963 5:96.951632 6:1.1826576 7:0.10366968 8:0.12260574 9:0.66666667 10:0.66666667 11:1 12:0.7472119 \n1 1:0.3777193 2:0.052693324 3:0.22222222 4:0.25925926 5:1.3505738 6:1.1470834 7:0.11821329 8:0.1356005 9:0 10:0 11:0.71428571 12:0.23420074 \n1 1:0.47575967 2:0.087063899 3:0.37037037 4:0.44444444 5:1.0619582 6:1.0005222 7:0.090378542 8:0.090425734 9:0 10:0 11:0.71428571 12:0.25650558 \n0.820037043146561 1:0.17651632 2:0.068304469 3:0.037037037 4:0.74074074 5:1.5049445 6:1.8798828 7:0.1668579 8:0.3136733 9:0 10:0 11:1 12:0.49070632 \n1 1:0.22813474 2:0.055079978 3:0.51851852 4:0.51851852 5:3.127141 6:1.0001294 7:0.14858501 8:0.14860424 9:0.33333333 10:0.33333333 11:0.71428571 12:0.25650558 \n1 1:0.27801872 2:0.015300575 3:0.25925926 4:0.37037037 5:1.4170548 6:1.0688212 7:0.14369988 8:0.15358948 9:0 10:0 11:0.85714286 12:0.37918216 \n1 1:0.033491488 2:0.14249236 3:0.2962963 4:0.40740741 5:1.0264193 6:1.9837968 7:0.14573131 8:0.2891013 9:0 10:0.33333333 11:0.71428571 12:0.25650558 \n1 1:0.22205875 2:0.093553256 3:0.44444444 4:0.51851852 5:1.6729478 6:1.0108569 7:0.14306364 8:0.14461687 9:0.33333333 10:0.33333333 11:0.85714286 12:0.69888476 \n0.03009752953205131 1:0.76690727 2:0.21933326 3:0.48148148 4:0.59259259 5:151.78916 6:1.3109632 7:0.014875779 8:0.0195016 9:0.66666667 10:0.66666667 11:1 12:0.95539033 \n1 1:0.23792393 2:0.065880358 3:0.48148148 4:0.66666667 5:1.3015817 6:1.2297305 7:0.10951519 8:0.13467417 9:0.33333333 10:0.33333333 11:0.71428571 12:0.16356877 \n0.692819986231898 1:0.32000048 2:0.050514615 3:0.2962963 4:0.37037037 5:21.734716 6:1.0329119 7:0.097199606 8:0.10039863 9:0 10:0 11:1 12:0.95539033 \n1 1:0.35736389 2:0.0075539532 3:0.2962963 4:0.48148148 5:1.9079922 6:1.1587991 7:0.13901182 8:0.16108678 9:0 10:0 11:1 12:0.95539033 \n1 1:0.20273178 2:0.06569075 3:0.25925926 4:0.48148148 5:2.8461378 6:1.092995 7:0.078808983 8:0.086137827 9:0 10:0 11:0.85714286 12:0.38289963 \n0.01520468130987396 1:0.36692171 2:0.1308054 3:0.33333333 4:0.62962963 5:84.129653 6:1.2546291 7:0.04484546 8:0.05626442 9:0 10:0.33333333 11:0.71428571 12:0.18215613 \n1 1:0.35757237 2:0.024022393 3:0.22222222 4:0.33333333 5:2.7602215 6:1.2809882 7:0.10956009 8:0.14034517 9:0 10:0 11:0.71428571 12:0.26394052 \n0.08831253702026912 1:0.085821631 2:0.1500638 3:0.77777778 4:0.85185185 5:4.8524929 6:1.3254146 7:0.067286072 8:0.089181941 9:0.33333333 10:0.33333333 11:0.85714286 12:0.49070632 \n1 1:0.25541295 2:0.085730121 3:0.25925926 4:0.37037037 5:1.3193483 6:1.3678052 7:0.11989745 8:0.16399636 9:0 10:0 11:0.71428571 12:0.27509294 \n0.1805777976334126 1:0.26692595 2:0.20119553 3:0.25925926 4:0.59259259 5:1.3620084 6:2.3806607 7:0.047507717 8:0.11309976 9:0.33333333 10:0.66666667 11:0.85714286 12:0.4795539 \n1 1:0.23675564 2:0.13609303 3:0.44444444 4:0.62962963 5:1.080579 6:1.6511118 7:0.083439972 8:0.13776872 9:0.33333333 10:0.33333333 11:1 12:0.94795539 \n1 1:0.21504494 2:0.17282931 3:0.44444444 4:0.48148148 5:1.032753 6:1.1594195 7:0.13535833 8:0.15693709 9:0.33333333 10:0.33333333 11:0.85714286 12:0.4795539 \n1 1:0.40391883 2:0.042440236 3:0.2962963 4:0.33333333 5:1.6492236 6:1.0946779 7:0.11135328 8:0.12189598 9:0 10:0 11:1 12:0.94795539 \n1 1:0.097695227 2:0.2172989 3:0.25925926 4:0.40740741 5:2.9414567 6:1.4253914 7:0.17396968 8:0.24797488 9:0.66666667 10:0.66666667 11:0.85714286 12:0.23791822 \n1 1:0.03410168 2:0.95135132 3:0.11111111 4:0.18518519 5:1.8003009 6:1.3125715 7:0.060089039 8:0.078871162 9:0 10:0 11:0.42857143 12:0.029739777 \n1 1:0.13116976 2:0.065725389 3:0.22222222 4:0.25925926 5:1.2958627 6:1.1818747 7:0.084608745 8:0.099996935 9:0 10:0 11:0.71428571 12:0.19702602 \n0.02016825954052186 1:0.61257495 2:0.11576791 3:0.48148148 4:0.55555556 5:90.542826 6:1.0492035 7:0.010091552 8:0.010588092 9:0 10:0.33333333 11:0.57142857 12:0.10408922 \n0.5164570137599896 1:0.77478179 2:0.82783359 3:0.2962963 4:0.40740741 5:4.865436 6:1.4098445 7:0.70929808 8:1 9:0 10:0 11:0.28571429 12:0.05204461 \n0.1858350940094263 1:0.31258731 2:0.099882118 3:0.2962963 4:0.2962963 5:45.747229 6:1.1032894 7:0.0048228414 8:0.0053209897 9:0 10:0 11:0.57142857 12:0.085501859 \n1 1:0.12253378 2:0.096249302 3:0.66666667 4:0.74074074 5:1.2396879 6:1.1769227 7:0.12068527 8:0.14203722 9:0.33333333 10:0.33333333 11:0.85714286 12:0.51672862 \n1 1:0.11781574 2:0.069620294 3:0.33333333 4:0.37037037 5:1.7107343 6:1.1703684 7:0.10629089 8:0.12439949 9:0 10:0 11:0.85714286 12:0.49070632 \n0.03397761439939628 1:0.56944631 2:0.93305684 3:0.55555556 4:0.62962963 5:10.917613 6:1.5706493 7:0.06501994 8:0.10212352 9:0.33333333 10:0.33333333 11:0.85714286 12:0.32342007 \n1 1:0.16890522 2:0.027573757 3:0.11111111 4:0.22222222 5:4.0359184 6:1.071156 7:0.16758685 8:0.17951166 9:0 10:0 11:0.28571429 12:0.040892193 \n1 1:0.11346646 2:0.1189702 3:0.22222222 4:0.48148148 5:1.8292266 6:1.6783357 7:0.10728133 8:0.18005409 9:0 10:0 11:0.85714286 12:0.51672862 \n0.06265159110210565 1:0.90151643 2:0.96318749 3:0.33333333 4:0.37037037 5:9.6700687 6:1.731296 7:0.058707042 8:0.10163927 9:0 10:0 11:0.28571429 12:0.05204461 \n1 1:0.37133532 2:0.0273215 3:0.22222222 4:0.2962963 5:1.1132645 6:1.123819 7:0.11066436 8:0.12436671 9:0 10:0 11:0.71428571 12:0.23791822 \n1 1:0.23473253 2:0.089073018 3:0.25925926 4:0.25925926 5:1.6085785 6:1.0862435 7:0.14996983 8:0.16290375 9:0 10:0 11:0.85714286 12:0.35687732 \n0.5906440768274096 1:0.20573577 2:0.10430289 3:0.25925926 4:0.37037037 5:42.237822 6:1.4281524 7:0.060159871 8:0.085917464 9:0 10:0 11:1 12:1 \n0.7137334893678647 1:0.13265375 2:0.049275495 3:0.51851852 4:0.55555556 5:8.1424614 6:1.4101602 7:0.13751034 8:0.19391161 9:0.33333333 10:0.33333333 11:0.57142857 12:0.10037175 \n0.007357604421216716 1:0.99527222 2:0.050392154 3:0.25925926 4:0.81481481 5:12.177316 6:2.8694461 7:0.0083583467 8:0.023983825 9:0 10:0 11:0.85714286 12:0.37918216 \n1 1:0.20553301 2:0.01950411 3:0.18518519 4:0.25925926 5:1.2071061 6:1.0489185 7:0.1272146 8:0.13343774 9:0 10:0 11:0.71428571 12:0.24535316 \n0.3657723695525539 1:0.7537192 2:0.91748432 3:0.44444444 4:0.85185185 5:14.785625 6:1.186606 7:0.086197635 8:0.10228263 9:0 10:0.33333333 11:0.85714286 12:0.51301115 \n0.7016574614995008 1:0.1397732 2:0.27094606 3:0.2962963 4:0.59259259 5:35.985908 6:1.0601802 7:0.16198398 8:0.17173221 9:0 10:0.33333333 11:0.71428571 12:0.2527881 \n0.2331745745404215 1:0.38888232 2:0.094524091 3:0.2962963 4:0.55555556 5:2.9650762 6:3.2903916 7:0.033842847 8:0.11135622 9:0.33333333 10:0.66666667 11:0.85714286 12:0.69888476 \n1 1:0.96562523 2:0.84377243 3:0.14814815 4:0.14814815 5:1.0986137 6:1.0247233 7:0.12791375 8:0.1310762 9:0 10:0 11:0.14285714 12:0.014869888 \n1 1:0.016232573 2:0.031073999 3:0.2962963 4:0.33333333 5:1.0247429 6:1.0346105 7:0.2191625 8:0.22674783 9:0 10:0.33333333 11:0.71428571 12:0.19702602 \n1 1:0.18160076 2:0.051035213 3:0.48148148 4:0.55555556 5:1.2984051 6:1.1449179 7:0.13473783 8:0.15426375 9:0.33333333 10:0.33333333 11:1 12:0.95539033 \n1 1:0.15053002 2:0.032931605 3:0.18518519 4:0.22222222 5:1.956987 6:1.140644 7:0.15322564 8:0.1747759 9:0 10:0 11:0.28571429 12:0.022304833 \n1 1:0.046034381 2:0.06211058 3:0.14814815 4:0.18518519 5:1.0976388 6:1.1250734 7:0.12296807 8:0.1383481 9:0 10:0 11:0.42857143 12:0.022304833 \n0.7516860407501159 1:0.2041674 2:0.31509592 3:0.44444444 4:0.48148148 5:20.062053 6:1.1077096 7:0.065578595 8:0.072642041 9:0.33333333 10:0.33333333 11:0.85714286 12:0.26394052 \n1 1:0.15398465 2:0.43038905 3:0.44444444 4:0.55555556 5:2.2500255 6:1.9087074 7:0.11008783 8:0.21012546 9:0.33333333 10:0.33333333 11:0.71428571 12:0.24535316 \n1 1:0.14656124 2:0.18462725 3:0.11111111 4:0.22222222 5:1.7722365 6:1.0854709 7:0.11319863 8:0.12287381 9:0 10:0 11:0.28571429 12:0.022304833 \n0.3062787895934918 1:0.24028477 2:0.13800926 3:0.37037037 4:0.66666667 5:1.2100647 6:1.8713756 7:0.073058456 8:0.13671981 9:0.33333333 10:0.33333333 11:1 12:0.54275093 \n0.7034871483714631 1:0.63536198 2:0.9675544 3:0.2962963 4:0.37037037 5:5.2039383 6:1.4446975 7:0.035674229 8:0.051538471 9:0 10:0 11:0.28571429 12:0.05204461 \n0.04319404866753807 1:0.28767134 2:0.24531223 3:0.18518519 4:0.2962963 5:7.2080716 6:1.6233463 7:0.10021057 8:0.16267646 9:0 10:0 11:1 12:0.95539033 \n0.02288417449869679 1:0.53802063 2:0.086838296 3:0.25925926 4:0.59259259 5:1.2950073 6:4.2015785 7:0.018967659 8:0.079694107 9:0 10:0.33333333 11:0.57142857 12:0.12267658 \n1 1:0.10505135 2:0.019948538 3:0.2962963 4:0.33333333 5:1.2133498 6:1.0333579 7:0.12764994 8:0.13190808 9:0 10:0 11:1 12:1 \n1 1:0.22658719 2:0.089243664 3:0.22222222 4:0.44444444 5:5.1286973 6:1.0835877 7:0.084998278 8:0.09210309 9:0 10:0 11:0.85714286 12:0.23791822 \n1 1:0.19402152 2:0.010531226 3:0.037037037 4:0.037037037 5:4.810189 6:1.148125 7:0.23529099 8:0.27014346 9:0 10:0 11:0.85714286 12:0.69888476 \n0.02565595592915682 1:0.66326106 2:0.14103992 3:0.22222222 4:0.62962963 5:131.30428 6:1.9756377 7:0.0099221987 8:0.01960267 9:0 10:0.33333333 11:1 12:0.76579926 \n1 1:0.066551392 2:0.3706358 3:0.18518519 4:0.44444444 5:1.474346 6:1.5588853 7:0.13669145 8:0.21308629 9:0.66666667 10:0.66666667 11:0.71428571 12:0.19702602 \n1 1:0.14823236 2:0.32751659 3:0.40740741 4:0.51851852 5:1.8724068 6:1.2012636 7:0.099374691 8:0.1193752 9:0 10:0 11:0.85714286 12:0.43866171 \n1 1:0.14579202 2:0.18427152 3:0.48148148 4:0.55555556 5:1.2372962 6:1.3790917 7:0.15013333 8:0.20704762 9:0.66666667 10:0.66666667 11:1 12:0.95539033 \n1 1:0.31529901 2:0.047915985 3:0.2962963 4:0.40740741 5:1.2486776 6:1.2027495 7:0.075997417 8:0.091405854 9:0 10:0 11:0.57142857 12:0.11152416 \n1 1:0.20160481 2:0.070709975 3:0.44444444 4:0.59259259 5:1.1896009 6:1.4428575 7:0.13465095 8:0.19428213 9:0.33333333 10:0.33333333 11:1 12:0.85873606 \n1 1:0.39192761 2:0.17921952 3:0.25925926 4:0.25925926 5:2.0065679 6:1.0444733 7:0.11400565 8:0.11907586 9:0 10:0 11:0.71428571 12:0.29739777 \n1 1:0.36096525 2:0.034499799 3:0.14814815 4:0.22222222 5:1.4247972 6:1.1136296 7:0.13400767 8:0.14923491 9:0 10:0 11:0.28571429 12:0.037174721 \n1 1:0.11318719 2:0.083689881 3:0.37037037 4:0.44444444 5:1.7562932 6:1.0590589 7:0.13777367 8:0.14591042 9:0.33333333 10:0.33333333 11:0.85714286 12:0.24163569 \n1 1:0.35403264 2:0.058262124 3:0.25925926 4:0.40740741 5:1.2601198 6:1.4262927 7:0.11618213 8:0.16570973 9:0 10:0 11:1 12:0.85873606 \n1 1:0.40069079 2:0.1169909 3:0.37037037 4:0.37037037 5:6.2496172 6:1.339255 7:0.053730337 8:0.071958624 9:0 10:0 11:0.71428571 12:0.16356877 \n1 1:0.26470387 2:0.10564577 3:0.59259259 4:0.59259259 5:1.7294789 6:1.2108304 7:0.12096619 8:0.14646954 9:0.33333333 10:0.33333333 11:0.71428571 12:0.23048327 \n0.1199032052575776 1:0.2617208 2:0.0062864464 3:0.22222222 4:0.25925926 5:20.94316 6:1.3965742 7:0.12647259 8:0.17662836 9:0 10:0 11:1 12:0.85873606 \n1 1:0.19295304 2:0.31917048 3:0.25925926 4:0.2962963 5:1.4018942 6:1.0497678 7:0.099968364 8:0.10494357 9:0 10:0 11:0.71428571 12:0.2527881 \n1 1:0.19770262 2:0.33986659 3:0.2962963 4:0.37037037 5:1.3098542 6:1.3669896 7:0.12299537 8:0.16813339 9:0.33333333 10:0.33333333 11:0.57142857 12:0.05204461 \n1 1:0.26896597 2:0.056511669 3:0.18518519 4:0.33333333 5:3.6658476 6:1.0839531 7:0.11835561 8:0.12829193 9:0 10:0 11:1 12:0.7472119 \n1 1:0.1253795 2:0.21171078 3:0.2962963 4:0.37037037 5:1.6724208 6:1.3384136 7:0.078436276 8:0.10498018 9:0 10:0 11:0.71428571 12:0.18587361 \n0.6711333910339394 1:0.13746779 2:0.99686648 3:0.44444444 4:0.81481481 5:1.5008673 6:1.6471318 7:0.056243505 8:0.092640464 9:0.33333333 10:0.66666667 11:0.85714286 12:0.51301115 \n1 1:0.18919436 2:0.24561786 3:0.40740741 4:0.55555556 5:3.1264808 6:1.2974558 7:0.14073821 8:0.1826016 9:0.33333333 10:0.66666667 11:1 12:0.95539033 \n0.05005525559943919 1:0.15321085 2:0.19917216 3:0.33333333 4:0.48148148 5:833.78335 6:1.0427708 7:0.19118362 8:0.19936069 9:0 10:0.33333333 11:0.42857143 12:0.11524164 \n1 1:0.3712636 2:0.090872957 3:0.59259259 4:0.59259259 5:1.2990597 6:1.2954724 7:0.10870369 8:0.14082263 9:0.33333333 10:0.33333333 11:1 12:0.95539033 \n1 1:0.26961194 2:0.056848808 3:0.33333333 4:0.33333333 5:1.1606707 6:1.0301339 7:0.1534065 8:0.15802923 9:0 10:0 11:0.85714286 12:0.35687732 \n1 1:0.33139333 2:0.015389628 3:0.2962963 4:0.37037037 5:1.4151219 6:1.1000186 7:0.13202256 8:0.14522727 9:0 10:0 11:1 12:0.76579926 \n0.04591129942337679 1:0.94205846 2:0.32676618 3:0.2962963 4:0.59259259 5:174.06786 6:2.4134475 7:0.036484243 8:0.088052803 9:0 10:0.33333333 11:0.85714286 12:0.39033457 \n1 1:0.12118144 2:0.12663599 3:0.48148148 4:0.51851852 5:1.9058278 6:1.3516043 7:0.18557653 8:0.25082603 9:0.66666667 10:0.66666667 11:1 12:0.94795539 \n1 1:0.2013332 2:0.019743026 3:0.11111111 4:0.14814815 5:2.2261819 6:1.1218119 7:0.16280585 8:0.18263754 9:0 10:0 11:0.28571429 12:0.037174721 \n1 1:0.25684351 2:0.24150568 3:0.37037037 4:0.62962963 5:2.7963373 6:1.3311845 7:0.12865325 8:0.1712612 9:0.66666667 10:0.66666667 11:0.71428571 12:0.25650558 \n0.1942569257925999 1:0.46118427 2:0.042342373 3:0.25925926 4:0.33333333 5:23.04978 6:1.246009 7:0.11215659 8:0.13974812 9:0 10:0 11:0.42857143 12:0.059479554 \n0.04966271328208738 1:0.35506862 2:0.05327935 3:0.37037037 4:0.40740741 5:687.12088 6:1.1548358 7:0.024370296 8:0.028143691 9:0 10:0.33333333 11:1 12:0.49070632 \n0.6619787570442693 1:0.12774583 2:0.033751931 3:0.59259259 4:0.62962963 5:10.10366 6:1.0586233 7:0.14069331 8:0.14894122 9:0.66666667 10:0.66666667 11:0.85714286 12:0.38289963 \n1 1:0.11771712 2:0.26350989 3:0.51851852 4:0.55555556 5:1.4169747 6:1.1079503 7:0.15831843 8:0.17540895 9:0.33333333 10:0.33333333 11:0.71428571 12:0.18215613 \n1 1:0.14388788 2:0.12752408 3:0.22222222 4:0.33333333 5:4.1756061 6:1.3088903 7:0.11178815 8:0.14631843 9:0 10:0 11:0.85714286 12:0.32342007 \n1 1:0.083651785 2:0.024301739 3:0.48148148 4:0.55555556 5:1.768383 6:1.0499543 7:0.20882205 8:0.21925361 9:0.66666667 10:0.66666667 11:1 12:0.76579926 \n0.03584861009600833 1:0.40061789 2:0.11052875 3:0.44444444 4:0.74074074 5:101.96508 6:1.8509483 7:0.013583142 8:0.025141693 9:0.33333333 10:0.66666667 11:1 12:0.62453532 \n1 1:0.16145127 2:0.035195494 3:0.22222222 4:0.25925926 5:2.0008776 6:1.0199194 7:0.092429007 8:0.094270139 9:0 10:0 11:0.57142857 12:0.059479554 \n1 1:0.44838071 2:0.10222739 3:0.22222222 4:0.48148148 5:3.25409 6:1.0294338 7:0.094755138 8:0.097544141 9:0 10:0 11:0.85714286 12:0.32713755 \n1 1:0.025456871 2:0.12432627 3:0.40740741 4:0.55555556 5:1.048724 6:1.1029264 7:0.18951029 8:0.2090159 9:0.33333333 10:0.33333333 11:0.85714286 12:0.28624535 \n0.2542986616979299 1:0.043323438 2:0.10090648 3:0.44444444 4:0.55555556 5:15.391579 6:1.0592393 7:0.20084138 8:0.21273909 9:0.33333333 10:0.33333333 11:1 12:1 \n1 1:0.12057637 2:0.1411705 3:0.62962963 4:0.66666667 5:1.4255076 6:1.5504247 7:0.13302533 8:0.20624576 9:0.33333333 10:0.33333333 11:0.71428571 12:0.35315985 \n1 1:0.10004275 2:0.1457094 3:0.25925926 4:0.2962963 5:1.0418465 6:1.0539337 7:0.093107448 8:0.098129075 9:0 10:0 11:0.71428571 12:0.20446097 \n1 1:0.34437719 2:0.029711827 3:0.25925926 4:0.33333333 5:1.9153032 6:1.0565956 7:0.11803628 8:0.12471661 9:0 10:0 11:1 12:0.85873606 \n1 1:0.38818309 2:0.041304602 3:0.22222222 4:0.2962963 5:11.769482 6:1.1018056 7:0.10488476 8:0.11556261 9:0 10:0 11:0.57142857 12:0.11895911 \n1 1:0.20398371 2:0.018972119 3:0.14814815 4:0.18518519 5:2.4472918 6:1.0459456 7:0.13922966 8:0.14562665 9:0 10:0 11:0.28571429 12:0.022304833 \n1 1:0.3038072 2:0.059546852 3:0.2962963 4:0.2962963 5:1.4425616 6:1.1994903 7:0.11982557 8:0.14372961 9:0 10:0 11:0.71428571 12:0.27509294 \n1 1:0.010351359 2:0.08597465 3:0.074074074 4:0.14814815 5:1.7937298 6:1.3210617 7:0.071475965 8:0.094424162 9:0 10:0 11:0.42857143 12:0.022304833 \n1 1:0.14670667 2:0.042242575 3:0.25925926 4:0.25925926 5:10.45207 6:1.0355003 7:0.17421192 8:0.18039651 9:0 10:0 11:1 12:0.85873606 \n1 1:0.2404583 2:0.042814778 3:0.25925926 4:0.40740741 5:1.7376782 6:1.214068 7:0.16630869 8:0.20191007 9:0.33333333 10:0.33333333 11:0.71428571 12:0.19330855 \n1 1:0.12494408 2:0.02673781 3:0.22222222 4:0.25925926 5:1.2801505 6:1.0048689 7:0.092170357 8:0.092619123 9:0 10:0 11:0.71428571 12:0.19330855 \n1 1:0.2859476 2:0.012642458 3:0.33333333 4:0.40740741 5:1.0010873 6:1.0470276 7:0.12693894 8:0.13290857 9:0 10:0 11:1 12:0.54275093 \n0.4367321000222358 1:0.41872601 2:0.0093688667 3:0.25925926 4:0.2962963 5:23.206035 6:1.067589 7:0.11679948 8:0.12469384 9:0 10:0 11:0.85714286 12:0.71375465 \n0.1132429883201426 1:1 2:0.82169338 3:0.14814815 4:0.18518519 5:7.0045062 6:1.22795 7:0.017279713 8:0.021218623 9:0 10:0.33333333 11:0.28571429 12:0.026022305 \n1 1:0.21415691 2:0.13056603 3:0.2962963 4:0.40740741 5:1.1808737 6:1.0096675 7:0.11447915 8:0.11558587 9:0 10:0 11:1 12:0.94795539 \n1 1:0.0037831513 2:0.12833847 3:0.074074074 4:0.074074074 5:1.557153 6:1.0331856 7:0.16324099 8:0.16865823 9:0 10:0 11:0.14285714 12:0.0074349442 \n1 1:0.11124806 2:0.12071198 3:0.33333333 4:0.48148148 5:1.1444198 6:1.0335725 7:0.12212782 8:0.12622796 9:0 10:0 11:0.85714286 12:0.51301115 \n1 1:0.23711253 2:0.042174905 3:0.2962963 4:0.33333333 5:1.6386191 6:1.0644957 7:0.15591155 8:0.16596717 9:0 10:0 11:1 12:0.94795539 \n0.1990676952784527 1:0.22633171 2:0.19522728 3:0.2962963 4:0.33333333 5:18.533588 6:1.0706604 7:0.10610383 8:0.11360117 9:0 10:0.33333333 11:0.85714286 12:0.32713755 \n1 1:0.14929574 2:0.095341749 3:0.18518519 4:0.18518519 5:1.4000584 6:1.123835 7:0.10128598 8:0.11382873 9:0 10:0 11:0.28571429 12:0.022304833 \n0.08665671998560916 1:0.40845198 2:0.17194804 3:0.37037037 4:0.51851852 5:35.490634 6:1.133375 7:0.07915794 8:0.089715626 9:0.33333333 10:0.33333333 11:1 12:0.54275093 \n1 1:0.13441488 2:0.18918235 3:0.48148148 4:0.48148148 5:2.2412809 6:1.074475 7:0.14481904 8:0.15560443 9:0.33333333 10:0.33333333 11:1 12:0.94795539 \n1 1:0.37350457 2:0.015372039 3:0.40740741 4:0.62962963 5:6.3491178 6:1.109675 7:0.11228972 8:0.12460509 9:0.33333333 10:0.33333333 11:0.71428571 12:0.27509294 \n1 1:0.17725661 2:0.051406585 3:0.37037037 4:0.51851852 5:2.4132758 6:1.4309621 7:0.16211922 8:0.23198647 9:0 10:0.33333333 11:0.57142857 12:0.12639405 \n1 1:0.098077306 2:0.071070798 3:0.22222222 4:0.40740741 5:2.7498326 6:1.1314411 7:0.07841591 8:0.088722983 9:0 10:0 11:0.71428571 12:0.14498141 \n0.1297162408865228 1:0.44551689 2:0.33171769 3:0.37037037 4:0.7037037 5:14.393566 6:2.0040581 7:0.023819498 8:0.047735659 9:0.33333333 10:0.33333333 11:1 12:0.62453532 \n1 1:0.081639769 2:0.077493462 3:0.22222222 4:0.33333333 5:1.0727492 6:1.2236326 7:0.19176994 8:0.23465596 9:0 10:0.33333333 11:0.71428571 12:0.17472119 \n1 1:0.13352392 2:0.27686902 3:0.25925926 4:0.55555556 5:3.6992913 6:1.475979 7:0.14777716 8:0.21811598 9:0 10:0 11:0.85714286 12:0.69888476 \n1 1:0.22703914 2:0.02499233 3:0.37037037 4:0.48148148 5:1.0747797 6:1.1173321 7:0.12715961 8:0.14207952 9:0.33333333 10:0.33333333 11:0.85714286 12:0.4795539 \n1 1:0.051470312 2:0.17895949 3:0.51851852 4:0.7037037 5:1.8194602 6:1.080537 7:0.19788776 8:0.21382504 9:0.33333333 10:0.33333333 11:0.71428571 12:0.15241636 \n1 1:0.81443482 2:0.72485327 3:0.40740741 4:0.51851852 5:3.2267771 6:1.5462767 7:0.094340111 8:0.14587592 9:0.33333333 10:0.33333333 11:0.71428571 12:0.19702602 \n1 1:0 2:0.93307646 3:0.074074074 4:0.074074074 5:1.2145982 6:1.672011 7:0.075463021 8:0.126175 9:0 10:0 11:0.14285714 12:0.0074349442 \n1 1:0.41807111 2:0.090861673 3:0.2962963 4:0.37037037 5:4.5110897 6:1.1638852 7:0.097836931 8:0.11387095 9:0 10:0 11:0.28571429 12:0.05204461 \n0.578336154016896 1:0.18664424 2:0.21755627 3:0.40740741 4:0.59259259 5:11.79049 6:1.1171559 7:0.086253598 8:0.096358717 9:0.66666667 10:0.66666667 11:1 12:0.7472119 \n1 1:0.11291658 2:0.89392559 3:0.44444444 4:0.48148148 5:2.1800447 6:1.0879245 7:0.19325346 8:0.21024517 9:0.33333333 10:0.66666667 11:0.71428571 12:0.18587361 \n1 1:0.54834113 2:0.013215025 3:0 4:0.2962963 5:1.0308526 6:1.3830259 7:0.15120758 8:0.20912401 9:0 10:0 11:0.42857143 12:0.059479554 \n1 1:0.069560765 2:0.56789186 3:0.37037037 4:0.37037037 5:3.537901 6:1.3404201 7:0.13684555 8:0.18343053 9:0.33333333 10:0.33333333 11:0.71428571 12:0.20446097 \n1 1:0.14119044 2:0.1237449 3:0.44444444 4:0.55555556 5:1.1704119 6:1.1273844 7:0.14792336 8:0.16676648 9:0.33333333 10:0.33333333 11:0.85714286 12:0.28624535 \n1 1:0.16960291 2:0.19271522 3:0.33333333 4:0.37037037 5:1.1959459 6:1.3399941 7:0.076644975 8:0.10270382 9:0 10:0 11:0.71428571 12:0.15241636 \n1 1:0.20781626 2:0.12147371 3:0.40740741 4:0.40740741 5:1.0894302 6:1.0049926 7:0.20164803 8:0.20265478 9:0.33333333 10:0.33333333 11:0.71428571 12:0.21933086 \n1 1:0.40051306 2:0.020823271 3:0.22222222 4:0.33333333 5:1.8537718 6:1.0858633 7:0.13101188 8:0.14226099 9:0 10:0 11:0.71428571 12:0.26394052 \n1 1:0.34950662 2:0.067684673 3:0.25925926 4:0.2962963 5:1.1451984 6:1.1663513 7:0.1022721 8:0.1192852 9:0 10:0 11:0.42857143 12:0.12267658 \n1 1:0.27747397 2:0.056860841 3:0.22222222 4:0.2962963 5:9.641987 6:1.4066337 7:0.12305009 8:0.17308641 9:0 10:0 11:0.85714286 12:0.35687732 \n1 1:0.17038672 2:0.021528069 3:0.037037037 4:0.037037037 5:1.1470519 6:1.0255328 7:0.25581375 8:0.26234539 9:0 10:0 11:0.85714286 12:0.32713755 \n0.9835892369560681 1:0.35973368 2:0.060891574 3:0.25925926 4:0.37037037 5:13.74164 6:1.0336221 7:0.11820595 8:0.12218028 9:0 10:0 11:0.85714286 12:0.4795539 \n0.2702134736202497 1:0.82287195 2:0.097285269 3:0.55555556 4:0.59259259 5:224.20647 6:1.2521688 7:0.003392932 8:0.0042485237 9:0.33333333 10:0.66666667 11:1 12:0.95539033 \n1 1:0 2:0.24071402 3:0.14814815 4:0.18518519 5:1.7630987 6:1.0283064 7:0.084784755 8:0.087184705 9:0 10:0 11:0.28571429 12:0.022304833 \n1 1:0.23841851 2:0.11839951 3:0.33333333 4:0.48148148 5:2.1111208 6:1.4275623 7:0.11067616 8:0.15799711 9:0.33333333 10:0.33333333 11:0.85714286 12:0.4795539 \n0.3877048742807777 1:0.91935242 2:0.7894587 3:0.37037037 4:0.48148148 5:1.1881744 6:1.1607572 7:0.070041272 8:0.081300913 9:0 10:0 11:0.85714286 12:0.49070632 \n1 1:0.2093742 2:0.080913322 3:0.33333333 4:0.37037037 5:1.0001977 6:1.0790064 7:0.097300959 8:0.10498836 9:0 10:0 11:0.85714286 12:0.26394052 \n1 1:0.3404458 2:0.094684466 3:0.55555556 4:0.7037037 5:1.1892483 6:1.0914709 7:0.11670247 8:0.12737736 9:0.33333333 10:0.33333333 11:1 12:0.62453532 \n1 1:0.11053697 2:0.015746734 3:0.37037037 4:0.55555556 5:1.1009358 6:1.3856946 7:0.16702528 8:0.23144603 9:0.33333333 10:0.33333333 11:1 12:0.49814126 \n1 1:0.10149475 2:0.10444022 3:0.2962963 4:0.59259259 5:2.1529993 6:1.2733343 7:0.18975793 8:0.24162528 9:0 10:0.33333333 11:0.71428571 12:0.17472119 \n1 1:0.18070494 2:0.28371595 3:0.18518519 4:0.2962963 5:1.1036919 6:1.1542168 7:0.10208587 8:0.11782923 9:0 10:0 11:0.85714286 12:0.43866171 \n1 1:0.1891036 2:0.13515109 3:0.18518519 4:0.33333333 5:1.0299255 6:1.3276999 7:0.12966363 8:0.17215439 9:0 10:0 11:0.85714286 12:0.71375465 \n1 1:0.22252024 2:0.085401662 3:0.22222222 4:0.48148148 5:1.2930468 6:1.2635838 7:0.06916753 8:0.087398971 9:0 10:0 11:0.85714286 12:0.23791822 \n0.2887136893967265 1:0.58734529 2:0.13746618 3:0.33333333 4:0.44444444 5:30.594786 6:1.2382116 7:0.036694125 8:0.045435091 9:0 10:0 11:1 12:0.54275093 \n1 1:0.21043353 2:0.054754319 3:0.22222222 4:0.33333333 5:5.4136127 6:1.3178279 7:0.065146641 8:0.085852061 9:0 10:0 11:0.71428571 12:0.35315985 \n1 1:0.2412262 2:0.016935962 3:0.2962963 4:0.37037037 5:1.5639137 6:1.0485099 7:0.19469125 8:0.20413571 9:0.33333333 10:0.33333333 11:0.71428571 12:0.17472119 \n1 1:0.10863017 2:0.14653869 3:0 4:0.037037037 5:1.3408142 6:1.0709528 7:0.26455385 8:0.2833247 9:0 10:0 11:0.28571429 12:0.040892193 \n0.3898107127862239 1:0.29957148 2:0.053150166 3:0.33333333 4:0.40740741 5:11.283652 6:1.0811182 7:0.14185013 8:0.15335676 9:0 10:0 11:0.85714286 12:0.69888476 \n1 1:0.14301382 2:0.12231809 3:0.25925926 4:0.37037037 5:5.6843103 6:1.3944495 7:0.062693745 8:0.087423264 9:0 10:0 11:0.71428571 12:0.17100372 \n1 1:0.026030529 2:0.069280656 3:0.33333333 4:0.51851852 5:1.5264343 6:1.3202112 7:0.21052818 8:0.27794167 9:0.33333333 10:0.66666667 11:1 12:0.54275093 \n0.0633616698400416 1:0.74181154 2:0.42699881 3:0.55555556 4:0.59259259 5:187.80815 6:1.0519682 7:0.014467504 8:0.015219354 9:0.66666667 10:0.66666667 11:1 12:0.95539033 \n1 1:0.51361005 2:0.7898943 3:0.14814815 4:0.14814815 5:1.4533704 6:1.1351759 7:0.067080859 8:0.076148576 9:0 10:0 11:0.42857143 12:0.022304833 \n0.4609524670154143 1:0.3726212 2:0.61665292 3:0.22222222 4:0.37037037 5:6.8517067 6:1.0355348 7:0.072433105 8:0.075007002 9:0 10:0 11:0.71428571 12:0.18587361 \n0.04964194801296135 1:0.41932654 2:0.059397159 3:0.25925926 4:0.40740741 5:4969.7626 6:1.1128775 7:0.10276244 8:0.11436201 9:0 10:0 11:0.85714286 12:0.71375465 \n1 1:0.14528214 2:0.044601677 3:0.37037037 4:0.40740741 5:2.5159464 6:1.0988259 7:0.20663018 8:0.22705059 9:0.33333333 10:0.33333333 11:0.71428571 12:0.19330855 \n1 1:0.24478325 2:0.68343048 3:0.25925926 4:0.33333333 5:1.3873257 6:1.8451022 7:0.12375615 8:0.22834275 9:0 10:0.33333333 11:0.57142857 12:0.089219331 \n1 1:0.24848029 2:0.014983423 3:0.2962963 4:0.37037037 5:16.941546 6:1.121068 7:0.17705737 8:0.19849336 9:0.33333333 10:0.33333333 11:0.42857143 12:0.063197026 \n1 1:0.10743848 2:0.063644404 3:0.37037037 4:0.37037037 5:3.1262231 6:1.016975 7:0.057055286 8:0.058023798 9:0 10:0 11:0.71428571 12:0.19330855 \n0.6241126402697798 1:0.42319342 2:0.074215354 3:0.25925926 4:0.2962963 5:5.1179513 6:1.3443089 7:0.058804013 8:0.079050761 9:0 10:0 11:0.28571429 12:0.048327138 \n1 1:0.18737636 2:0.081050793 3:0.2962963 4:0.44444444 5:1.3221512 6:1.1752584 7:0.13428612 8:0.15782088 9:0 10:0 11:0.85714286 12:0.37918216 \n0.03620791708906501 1:0.39968128 2:0.49785092 3:0.40740741 4:0.59259259 5:129.59247 6:1.0213957 7:0.02619673 8:0.026757227 9:0 10:0 11:0.85714286 12:0.39033457 \n0.2155656781843329 1:0.15595321 2:0.033124598 3:0.37037037 4:0.48148148 5:9.7844274 6:1.1696199 7:0.10552262 8:0.12342136 9:0.33333333 10:0.33333333 11:1 12:0.49070632 \n0.6507707492496344 1:0.098354926 2:0.071581157 3:0.48148148 4:0.62962963 5:10.796889 6:1.2012108 7:0.15810867 8:0.18992185 9:0 10:0.33333333 11:0.71428571 12:0.35315985 \n1 1:0.45391452 2:0.0734853 3:0.25925926 4:0.2962963 5:3.1076612 6:1.10574 7:0.11807974 8:0.13056549 9:0 10:0 11:0.71428571 12:0.27509294 \n0.151231211268909 1:0.04775371 2:0.016093669 3:0.14814815 4:0.22222222 5:28.012302 6:1.1398487 7:0.1611345 8:0.18366896 9:0 10:0 11:0.28571429 12:0.033457249 \n1 1:0.3023306 2:0.14205804 3:0.55555556 4:0.66666667 5:3.3307629 6:1.2836628 7:0.12416455 8:0.15938541 9:0.33333333 10:0.33333333 11:1 12:0.62453532 \n0.20528968850905 1:0.028246369 2:0.87447419 3:0.66666667 4:0.85185185 5:3.2355134 6:1.4307133 7:0.69895206 8:1 9:0.33333333 10:0.33333333 11:0.85714286 12:0.51672862 \n1 1:0.19071939 2:0.091064621 3:0.44444444 4:0.44444444 5:1.5563898 6:1.08685 7:0.14642956 8:0.15914696 9:0.33333333 10:0.33333333 11:0.71428571 12:0.23420074 \n1 1:0.26302916 2:0.058245477 3:0.11111111 4:0.25925926 5:2.4634908 6:1.1153485 7:0.13070261 8:0.14577897 9:0 10:0 11:0.28571429 12:0.033457249 \n1 1:0.26244454 2:0.10275241 3:0.18518519 4:0.25925926 5:1.8063436 6:1.2222331 7:0.12616884 8:0.15420773 9:0 10:0 11:0.71428571 12:0.27509294 \n1 1:0.32646011 2:0.50276252 3:0.18518519 4:0.22222222 5:1.7181427 6:1.0078464 7:0.11136274 8:0.11223654 9:0 10:0 11:0.28571429 12:0.022304833 \n0.3268102798255332 1:0.1605848 2:0.033365336 3:0.40740741 4:0.55555556 5:64.424416 6:1.0041843 7:0.13524763 8:0.13581355 9:0 10:0.33333333 11:1 12:0.62453532 \n1 1:0.052998991 2:0.23470108 3:0.33333333 4:0.59259259 5:1.33446 6:1.5998009 7:0.14243902 8:0.22787407 9:0.33333333 10:0.66666667 11:0.85714286 12:0.49070632 \n1 1:0.21785971 2:0.026558439 3:0.2962963 4:0.33333333 5:2.9388152 6:1.0386582 7:0.068464362 8:0.071111067 9:0 10:0 11:0.57142857 12:0.12639405 \n0.04287173329964272 1:0.53105026 2:0.083928456 3:0.25925926 4:0.55555556 5:6.9166765 6:4.0886388 7:0.010808515 8:0.044192112 9:0 10:0.33333333 11:0.42857143 12:0.11524164 \n1 1:0.393053 2:0.0099260514 3:0.40740741 4:0.48148148 5:1.2386554 6:1.0103548 7:0.10309461 8:0.10416214 9:0.33333333 10:0.33333333 11:1 12:0.94795539 \n1 1:0.33731092 2:0.089643299 3:0.25925926 4:0.37037037 5:1.0209885 6:1.0716466 7:0.11630629 8:0.12463924 9:0 10:0 11:0.85714286 12:0.69888476 \n0.01250497557551978 1:0.20988589 2:0.082145919 3:0.2962963 4:0.40740741 5:27.19659 6:1.0162708 7:0.0805666 8:0.081877487 9:0.66666667 10:0.66666667 11:1 12:0.62453532 \n1 1:0 2:0.17282499 3:0.14814815 4:0.18518519 5:1.6270564 6:1.0617613 7:0.09786288 8:0.10390702 9:0 10:0 11:0.42857143 12:0.022304833 \n1 1:0.21280725 2:0.19544186 3:0.25925926 4:0.37037037 5:1.8792689 6:1.5146235 7:0.10912102 8:0.16527725 9:0 10:0 11:0.85714286 12:0.4795539 \n1 1:0.10416456 2:0.93833091 3:0.33333333 4:0.51851852 5:1.00395 6:1.6241706 7:0.13457794 8:0.21857754 9:0.33333333 10:0.33333333 11:0.57142857 12:0.12267658 \n1 1:0.15891392 2:0.065473335 3:0.37037037 4:0.59259259 5:1.1671291 6:1.278403 7:0.13865921 8:0.17726234 9:0.66666667 10:0.66666667 11:0.85714286 12:0.38289963 \n1 1:0.4407468 2:0.11440403 3:0 4:0.074074074 5:2.2624116 6:1.6786246 7:0.13502312 8:0.22665314 9:0 10:0 11:0 12:0.0074349442 \n0.3557032418822479 1:0.23340649 2:0.90017277 3:0.25925926 4:0.33333333 5:1.7926716 6:1.010142 7:0.08265693 8:0.083495236 9:0 10:0 11:0.57142857 12:0.081784387 \n1 1:0.24765989 2:0.060896465 3:0.2962963 4:0.2962963 5:1.7881066 6:1.1128323 7:0.10361187 8:0.11530264 9:0 10:0 11:0.71428571 12:0.27509294 \n0.04859026069798861 1:0.21115148 2:0.31365518 3:0.40740741 4:0.59259259 5:197.19184 6:1.3463321 7:0.061937072 8:0.083387867 9:0 10:0.33333333 11:1 12:0.62453532 \n1 1:0.7336738 2:0.8784993 3:0.2962963 4:0.40740741 5:2.3554384 6:1.209806 7:0.077576852 8:0.093852944 9:0 10:0 11:0.57142857 12:0.133829 \n0.8157125826437934 1:0.36611642 2:0.058586286 3:0.2962963 4:0.55555556 5:39.354873 6:1.072117 7:0.12349482 8:0.13240089 9:0 10:0.33333333 11:0.57142857 12:0.10408922 \n0.3626084513522781 1:0.12843547 2:0.1350841 3:0.59259259 4:0.74074074 5:36.572521 6:1.7645499 7:0.029198446 8:0.051522114 9:0.33333333 10:0.33333333 11:0.85714286 12:0.39033457 \n1 1:0.27718246 2:0.04684013 3:0.25925926 4:0.2962963 5:1.2939856 6:1.2031562 7:0.13902282 8:0.16726617 9:0 10:0 11:1 12:0.79182156 \n0.329151813583978 1:0.20722142 2:0.29164445 3:0.2962963 4:0.37037037 5:6.762415 6:1.0353907 7:0.17792056 8:0.18421729 9:0 10:0.33333333 11:0.57142857 12:0.133829 \n1 1:0.35821925 2:0.010427635 3:0.25925926 4:0.40740741 5:2.8590931 6:1.2592332 7:0.11712908 8:0.14749282 9:0 10:0 11:0.85714286 12:0.71375465 \n1 1:0.20588942 2:0.14247345 3:0.44444444 4:0.51851852 5:1.0386394 6:1.056162 7:0.17706748 8:0.18701195 9:0.33333333 10:0.33333333 11:0.71428571 12:0.29739777 \n1 1:0.55193873 2:0.03190278 3:0.25925926 4:0.40740741 5:1.5316278 6:1.1055396 7:0.11251064 8:0.12438497 9:0 10:0 11:0.71428571 12:0.21933086 \n1 1:0.13416875 2:0.021767389 3:0.037037037 4:0.074074074 5:3.3834481 6:1.0824434 7:0.28023939 8:0.30334328 9:0 10:0 11:0.85714286 12:0.69888476 \n1 1:0.24437301 2:0.041953152 3:0.22222222 4:0.22222222 5:2.2755397 6:1.0647118 7:0.14286353 8:0.15210849 9:0 10:0 11:0.28571429 12:0.029739777 \n1 1:0.17017428 2:0.14297659 3:0.33333333 4:0.37037037 5:3.3768968 6:1.4129818 7:0.14795743 8:0.20906115 9:0 10:0.33333333 11:0.57142857 12:0.081784387 \n1 1:0.12967613 2:0.065511442 3:0.22222222 4:0.33333333 5:1.5907025 6:1.2525573 7:0.15179029 8:0.19012603 9:0 10:0 11:1 12:0.49070632 \n1 1:0.10577899 2:0.035903355 3:0.37037037 4:0.37037037 5:1.0384877 6:1.0412194 7:0.15337911 8:0.1597013 9:0.33333333 10:0.33333333 11:0.85714286 12:0.51301115 \n1 1:0.10254352 2:0.079797115 3:0.51851852 4:0.66666667 5:1.1131283 6:1.054272 7:0.20097973 8:0.21188732 9:0.66666667 10:0.66666667 11:1 12:0.85873606 \n0.5144415226238109 1:0.34935677 2:0.043089302 3:0.37037037 4:0.37037037 5:1.6866464 6:1.0318675 7:0.11903829 8:0.12283174 9:0 10:0 11:1 12:0.76579926 \n1 1:0.20900485 2:0.06633867 3:0.2962963 4:0.33333333 5:4.1218005 6:1.3017064 7:0.073530751 8:0.095715447 9:0 10:0 11:0.71428571 12:0.14498141 \n1 1:0.11600549 2:0.065839865 3:0.40740741 4:0.81481481 5:1.3474788 6:1.4916108 7:0.11727452 8:0.17492794 9:0.33333333 10:0.33333333 11:0.85714286 12:0.38289963 \n0.4513768182662326 1:0.42193644 2:0.17124935 3:0.37037037 4:0.55555556 5:13.57366 6:2.0599054 7:0.058311245 8:0.12011565 9:0.66666667 10:0.66666667 11:1 12:0.95539033 \n1 1:0.64929407 2:0.99854603 3:0.22222222 4:0.25925926 5:5.230269 6:1.3315432 7:0.048160606 8:0.064127926 9:0 10:0 11:0.57142857 12:0.081784387 \n1 1:0.36955222 2:0.1442775 3:0.25925926 4:0.33333333 5:1.4123291 6:1.0152088 7:0.13007839 8:0.13205673 9:0 10:0 11:1 12:0.85873606 \n1 1:0.41617499 2:0.59728878 3:0.14814815 4:0.18518519 5:1.0156739 6:1.0771531 7:0.10718391 8:0.11545348 9:0 10:0 11:0.28571429 12:0.022304833 \n0.01643555950286402 1:0.47386285 2:0.02506864 3:0.25925926 4:0.37037037 5:68.180844 6:1.1242664 7:0.033664284 8:0.037847625 9:0 10:0 11:0.71428571 12:0.2527881 \n0.7611606678614208 1:0.26692758 2:0.16795957 3:0.18518519 4:0.33333333 5:14.536887 6:1.4623463 7:0.12457352 8:0.18216962 9:0 10:0 11:0.71428571 12:0.27509294 \n1 1:0.11526643 2:0.28370809 3:0.14814815 4:0.18518519 5:1.9059788 6:1.0804018 7:0.091768915 8:0.099147299 9:0 10:0 11:0.71428571 12:0.20446097 \n1 1:0.25839273 2:0.067852945 3:0.22222222 4:0.2962963 5:1.6553426 6:1.2192033 7:0.091696169 8:0.11179627 9:0 10:0 11:0.71428571 12:0.24535316 \n1 1:0.14647189 2:0.97160704 3:0.18518519 4:0.18518519 5:2.0267062 6:1.1061156 7:0.10359677 8:0.11459 9:0 10:0 11:0.28571429 12:0.022304833 \n1 1:0.21882042 2:0.048170011 3:0.2962963 4:0.37037037 5:1.105829 6:1.0148567 7:0.10397703 8:0.10552179 9:0 10:0 11:0.57142857 12:0.12267658 \n1 1:0.2068458 2:0.34220587 3:0.48148148 4:0.55555556 5:1.4400415 6:1.104405 7:0.16124772 8:0.17808278 9:0.33333333 10:0.33333333 11:0.71428571 12:0.27509294 \n1 1:0.24560858 2:0.21052842 3:0.44444444 4:0.62962963 5:1.5769753 6:1.3765357 7:0.13024056 8:0.17928079 9:0.33333333 10:0.33333333 11:1 12:0.95539033 \n1 1:0.13007012 2:0.13083573 3:0.37037037 4:0.51851852 5:10.743712 6:1.2230337 7:0.1832524 8:0.22412387 9:0 10:0.33333333 11:0.42857143 12:0.11152416 \n1 1:0.031761208 2:0.058328059 3:0.37037037 4:0.59259259 5:1.7742504 6:1.415166 7:0.15777646 8:0.22327989 9:0.66666667 10:0.66666667 11:1 12:0.7472119 \n1 1:0.12718925 2:0.043775982 3:0.33333333 4:0.44444444 5:1.0569295 6:1.2768872 7:0.1105123 8:0.14111175 9:0 10:0 11:0.71428571 12:0.35315985 \n0.7212969502277836 1:0.12337379 2:0.15721245 3:0.18518519 4:0.51851852 5:9.4961149 6:1.0432177 7:0.17737976 8:0.1850457 9:0 10:0.33333333 11:0.57142857 12:0.11152416 \n1 1:0.21242668 2:0.012134376 3:0.037037037 4:0.074074074 5:1.7645948 6:1.0769665 7:0.17005082 8:0.18313903 9:0 10:0 11:0.14285714 12:0.0074349442 \n0.02940446549604599 1:0.63566542 2:0.38543125 3:0.25925926 4:0.51851852 5:93.381172 6:1.0102735 7:0.00036770933 8:0.00037148698 9:0 10:0.33333333 11:0.71428571 12:0.19702602 \n1 1:0.32455148 2:0.068305283 3:0.40740741 4:0.44444444 5:1.2299272 6:1.1375456 7:0.12707845 8:0.14455753 9:0.33333333 10:0.33333333 11:0.71428571 12:0.23791822 \n1 1:0 2:0.24199579 3:0.18518519 4:0.18518519 5:2.3546724 6:1.0063846 7:0.10422403 8:0.10488947 9:0 10:0 11:0.28571429 12:0.018587361 \n1 1:0.16528353 2:0.012729697 3:0.18518519 4:0.22222222 5:1.2168386 6:1.0682689 7:0.15485106 8:0.16542256 9:0 10:0 11:0.28571429 12:0.029739777 \n1 1:0.32392009 2:0.0048934412 3:0.037037037 4:0.037037037 5:1.4251 6:1.3753935 7:0.1844747 8:0.25372531 9:0 10:0 11:0.71428571 12:0.19702602 \n1 1:0.16598878 2:0.11050045 3:0.25925926 4:0.44444444 5:1.0017389 6:1.0010339 7:0.16058717 8:0.16075321 9:0 10:0.33333333 11:1 12:0.95539033 \n1 1:0.28350313 2:0.063785844 3:0.2962963 4:0.40740741 5:5.539312 6:1.1060183 7:0.077156065 8:0.085336019 9:0 10:0 11:0.71428571 12:0.23048327 \n1 1:0.10728343 2:0.061198229 3:0.2962963 4:0.40740741 5:5.0621701 6:1.1628782 7:0.13090971 8:0.15223205 9:0 10:0 11:0.85714286 12:0.51672862 \n1 1:0.21267278 2:0.078164154 3:0.33333333 4:0.37037037 5:1.4287081 6:1.2600219 7:0.13273316 8:0.16724669 9:0 10:0 11:1 12:0.95539033 \n1 1:0.21561222 2:0.099656394 3:0.2962963 4:0.37037037 5:1.0363405 6:1.027708 7:0.2124529 8:0.21833954 9:0.66666667 10:0.66666667 11:0.71428571 12:0.21561338 \n0.5798771937449855 1:0.5015585 2:0.059340312 3:0.25925926 4:0.44444444 5:6.7888428 6:1.4568975 7:0.063908751 8:0.093108501 9:0 10:0 11:0.71428571 12:0.23420074 \n1 1:0.19603803 2:0.063823147 3:0.33333333 4:0.37037037 5:1.8970302 6:1.0738421 7:0.10879314 8:0.11682665 9:0 10:0 11:0.85714286 12:0.43866171 \n1 1:0.36806286 2:0.03955117 3:0.22222222 4:0.22222222 5:2.8206545 6:1.0309821 7:0.099320559 8:0.10239771 9:0 10:0 11:0.71428571 12:0.17472119 \n1 1:0.058405462 2:0.14055721 3:0.2962963 4:0.44444444 5:1.4413759 6:1.4496738 7:0.19241338 8:0.27893665 9:0 10:0.33333333 11:0.42857143 12:0.11152416 \n1 1:0.2461348 2:0.065789853 3:0.40740741 4:0.59259259 5:1.1829398 6:1.1698336 7:0.10677962 8:0.12491439 9:0.33333333 10:0.33333333 11:0.71428571 12:0.14498141 \n0.02934690325400591 1:0.30271071 2:0.051434739 3:0.33333333 4:0.51851852 5:191.15778 6:1.0112269 7:0.08315887 8:0.084092487 9:0.33333333 10:0.33333333 11:0.71428571 12:0.24535316 \n1 1:0.20973702 2:0.11547121 3:0.40740741 4:0.40740741 5:1.4370614 6:1.1928597 7:0.1256369 8:0.1498672 9:0.33333333 10:0.33333333 11:0.71428571 12:0.27509294 \n0.1897968659794353 1:0.34688256 2:0.34472715 3:0.37037037 4:0.59259259 5:120.03355 6:1.5059167 7:0.043982508 8:0.066233993 9:0.33333333 10:0.66666667 11:1 12:0.95539033 \n1 1:0.18986608 2:0.084860023 3:0.25925926 4:0.40740741 5:1.3794087 6:1.2126124 7:0.17451644 8:0.2116208 9:0 10:0 11:1 12:0.95539033 \n0.03899965719127561 1:0.087128362 2:0.41433328 3:0.14814815 4:0.14814815 5:1.3277116 6:1.6584298 7:0.60298 8:1 9:0 10:0 11:0.28571429 12:0.018587361 \n1 1:0.10769974 2:0.071331751 3:0.25925926 4:0.2962963 5:1.9709176 6:1.0666741 7:0.13304229 8:0.14191278 9:0 10:0 11:0.85714286 12:0.51301115 \n1 1:0.084320908 2:0.089217772 3:0.2962963 4:0.37037037 5:1.394784 6:1.0984824 7:0.14399818 8:0.15817947 9:0 10:0 11:0.85714286 12:0.49070632 \n1 1:0.19277371 2:0.054623945 3:0.2962963 4:0.33333333 5:2.344545 6:1.3081882 7:0.077217642 8:0.10101521 9:0 10:0 11:0.71428571 12:0.23048327 \n0.190538768283652 1:0.20895197 2:0.1125327 3:0.55555556 4:0.66666667 5:40.215899 6:2.3045174 7:0.043005531 8:0.099106994 9:0.33333333 10:0.33333333 11:0.71428571 12:0.35315985 \n1 1:0.21706418 2:0.30454766 3:0.22222222 4:0.22222222 5:1.7276381 6:1.3515475 7:0.13856752 8:0.18728058 9:0.33333333 10:0.33333333 11:0.42857143 12:0.037174721 \n0.04304838031316932 1:0.27665029 2:0.065449558 3:0.33333333 4:0.37037037 5:2.8524821 6:1.4732375 7:0.085412415 8:0.12583277 9:0 10:0 11:0.71428571 12:0.16356877 \n0.5891249867478743 1:0.15063298 2:0.048129571 3:0.48148148 4:0.62962963 5:3.8814741 6:1.0454867 7:0.11024597 8:0.1152607 9:0.33333333 10:0.33333333 11:0.71428571 12:0.34944238 \n0.1264823949335692 1:0.4342626 2:0.12235911 3:0.33333333 4:0.59259259 5:76.259702 6:1.2043688 7:0.053202575 8:0.064075519 9:0 10:0.33333333 11:1 12:0.95539033 \n1 1:0.13148137 2:0.017275359 3:0.2962963 4:0.37037037 5:1.0654515 6:1.0653009 7:0.089466848 8:0.095309115 9:0 10:0 11:0.85714286 12:0.39033457 \n0.7736104033123224 1:0.54039256 2:0.058855941 3:0.2962963 4:0.2962963 5:10.741666 6:1.2197579 7:0.057172699 8:0.069736849 9:0 10:0 11:0.28571429 12:0.05204461 \n1 1:0.29237708 2:0.021079412 3:0.33333333 4:0.40740741 5:1.6375801 6:1.2255266 7:0.14986195 8:0.18365981 9:0.33333333 10:0.33333333 11:0.57142857 12:0.078066914 \n1 1:0.13469163 2:0.070081613 3:0.25925926 4:0.2962963 5:1.2770232 6:1.1652338 7:0.094130577 8:0.10968413 9:0 10:0 11:0.71428571 12:0.17100372 \n0.6108799803854817 1:1 2:0.54143765 3:0.37037037 4:0.40740741 5:1.7508689 6:1.168669 7:0.097535178 8:0.11398634 9:0 10:0 11:0.28571429 12:0.05204461 \n1 1:0.057439089 2:0.94135067 3:0.25925926 4:0.59259259 5:1.5093527 6:1.5381091 7:0.13245124 8:0.20372445 9:0.66666667 10:1 11:0.85714286 12:0.49070632 \n1 1:0.36234141 2:0.049734231 3:0.25925926 4:0.33333333 5:1.6323253 6:1.0985399 7:0.12305821 8:0.13518436 9:0 10:0 11:0.57142857 12:0.12267658 \n1 1:0.23568141 2:0.18665375 3:0.25925926 4:0.37037037 5:1.3329091 6:1.2610584 7:0.1191084 8:0.15020265 9:0 10:0 11:1 12:0.62453532 \n1 1:0.1070481 2:0.015405853 3:0.14814815 4:0.18518519 5:2.3683526 6:1.0559353 7:0.10349362 8:0.10928256 9:0 10:0 11:0.28571429 12:0.022304833 \n0.09731552053024976 1:0.47309948 2:0.21220511 3:0.40740741 4:0.59259259 5:64.584264 6:1.0232529 7:0.031665711 8:0.03240203 9:0.66666667 10:0.66666667 11:1 12:0.95539033 \n1 1:0.35945595 2:0.1379572 3:0.33333333 4:0.59259259 5:1.2914797 6:1.4143063 7:0.12121202 8:0.17143092 9:0.33333333 10:0.33333333 11:0.71428571 12:0.19702602 \n0.6769028538647243 1:0.4750768 2:0.18777622 3:0.037037037 4:0.14814815 5:2.937669 6:1.4849264 7:0.11913559 8:0.17690758 9:0 10:0 11:0.28571429 12:0.037174721 \n1 1:0.19612335 2:0.090685622 3:0.25925926 4:0.2962963 5:1.2695479 6:1.0077311 7:0.10066042 8:0.10143864 9:0 10:0 11:0.85714286 12:0.32342007 \n1 1:0.75140969 2:0.51253508 3:0.55555556 4:0.66666667 5:4.027564 6:1.0993901 7:0.14099881 8:0.15501269 9:0.33333333 10:0.33333333 11:0.85714286 12:0.39033457 \n1 1:0.3270446 2:0.12219369 3:0.11111111 4:0.14814815 5:4.9808672 6:1.1989282 7:0.1200271 8:0.14390388 9:0 10:0 11:0.28571429 12:0.022304833 \n1 1:0.24889574 2:0.028230512 3:0.25925926 4:0.40740741 5:1.657669 6:1.0698335 7:0.070721731 8:0.075660475 9:0 10:0 11:0.71428571 12:0.16356877 \n1 1:0.11978853 2:0.024043891 3:0.62962963 4:0.66666667 5:1.6673247 6:1.1215317 7:0.11336643 8:0.12714404 9:0.33333333 10:0.33333333 11:0.71428571 12:0.35315985 \n1 1:0.130589 2:0.16122336 3:0.25925926 4:0.37037037 5:12.750214 6:1.1324248 7:0.094619426 8:0.10714939 9:0 10:0 11:0.85714286 12:0.51301115 \n0.4488237027747712 1:0.26785678 2:0.053828657 3:0.037037037 4:0.59259259 5:8.8661651 6:1.7736904 7:0.16148701 8:0.28642796 9:0 10:0 11:0.71428571 12:0.29739777 \n1 1:0.36867736 2:0.2302147 3:0.14814815 4:0.14814815 5:1.9445695 6:1.4837646 7:0.079054432 8:0.11729817 9:0 10:0 11:0.14285714 12:0.014869888 \n0.6171224479269507 1:0.33763081 2:0.10333654 3:0.33333333 4:0.33333333 5:14.457432 6:1.065229 7:0.061499336 8:0.065510875 9:0 10:0 11:1 12:0.49070632 \n1 1:0.036067657 2:0.15565868 3:0.074074074 4:0.074074074 5:3.9858374 6:1.0115204 7:0.17251709 8:0.17450455 9:0 10:0 11:0.14285714 12:0.0074349442 \n1 1:0.054494084 2:0.033648841 3:0 4:0.037037037 5:1.8078021 6:1.3373871 7:0.24469464 8:0.32725146 9:0 10:0 11:0.71428571 12:0.29739777 \n0.437762121093765 1:0.3300666 2:0.31876201 3:0.2962963 4:0.33333333 5:20.328085 6:1.5919103 7:0.045776069 8:0.072871394 9:0 10:0 11:1 12:0.54275093 \n1 1:0.24925912 2:0.036183768 3:0.33333333 4:0.33333333 5:6.0597838 6:1.1010473 7:0.16308769 8:0.17956725 9:0.33333333 10:0.33333333 11:0.57142857 12:0.081784387 \n1 1:0.099389574 2:0.2437156 3:0.51851852 4:0.7037037 5:1.6454092 6:1.0913424 7:0.11136742 8:0.12153999 9:0.33333333 10:0.33333333 11:0.85714286 12:0.49070632 \n1 1:0.21299493 2:0.016320289 3:0.037037037 4:0.59259259 5:1.690263 6:1.5060384 7:0.22439944 8:0.33795417 9:0 10:0 11:0.57142857 12:0.12639405 \n0.1894803689894223 1:0.14568756 2:0.044833758 3:0.25925926 4:0.37037037 5:29.239441 6:1.3676791 7:0.12778427 8:0.17476788 9:0 10:0 11:1 12:0.7472119 \n0.3033096980251157 1:0.34177739 2:0.24205775 3:0.37037037 4:0.62962963 5:98.991158 6:1.5713277 7:0.06557241 8:0.10303575 9:0 10:0 11:1 12:0.85873606 \n1 1:0.39519442 2:0.058309035 3:0.48148148 4:0.66666667 5:1.5047981 6:1.1275058 7:0.10161281 8:0.11456903 9:0.33333333 10:0.33333333 11:0.85714286 12:0.37918216 \n1 1:0.19252096 2:0.11346732 3:0.2962963 4:0.48148148 5:1.7133015 6:1.0329821 7:0.077760943 8:0.080325663 9:0 10:0 11:0.85714286 12:0.32342007 \n1 1:0.067034961 2:0.93083579 3:0.33333333 4:0.40740741 5:1.0595334 6:1.3362507 7:0.091584146 8:0.12237938 9:0.33333333 10:0.33333333 11:0.71428571 12:0.19330855 \n1 1:0.16476149 2:0.06221286 3:0.25925926 4:0.33333333 5:1.3314975 6:1.0822627 7:0.066083039 8:0.07151921 9:0 10:0 11:0.71428571 12:0.18587361 \n1 1:0.33506092 2:0.30328842 3:0.2962963 4:0.2962963 5:1.1479546 6:1.55546 7:0.64289663 8:1 9:0 10:0 11:0.42857143 12:0.055762082 \n0.1330910158920136 1:0.92446816 2:0.91588512 3:0.2962963 4:0.2962963 5:4.6232252 6:1.7085037 7:0.08996392 8:0.15370369 9:0 10:0 11:0.85714286 12:0.39033457 \n1 1:0.26836151 2:0.038851702 3:0.25925926 4:0.40740741 5:1.3562929 6:1.0291677 7:0.14866794 8:0.15300424 9:0 10:0 11:1 12:0.79182156 \n0.0146136760853086 1:0.21207613 2:0.072695715 3:0.44444444 4:0.74074074 5:14.415405 6:1.2808385 7:0.0044242872 8:0.0056667976 9:0 10:0.33333333 11:0.85714286 12:0.38289963 \n1 1:0.1055716 2:0.06006835 3:0.25925926 4:0.33333333 5:1.0602874 6:1.207017 7:0.1138742 8:0.13744809 9:0 10:0 11:1 12:1 \n0.2379085466506599 1:0.28655628 2:0.21528763 3:0.55555556 4:0.59259259 5:11.088466 6:1.2610232 7:0.11159756 8:0.14072712 9:0.33333333 10:0.66666667 11:1 12:0.94795539 \n0.0476185803787762 1:0.84917316 2:0.33552564 3:0.25925926 4:0.59259259 5:154.01748 6:2.8803619 7:0.024036061 8:0.069232554 9:0 10:0 11:0.71428571 12:0.17472119 \n0.02786148854497361 1:0.33767723 2:0.12040894 3:0.33333333 4:0.40740741 5:190.77759 6:1.3407513 7:0.065879206 8:0.088327634 9:0 10:0 11:1 12:0.62453532 \n0.3148047513996614 1:0.28985503 2:0.058903976 3:0.2962963 4:0.37037037 5:5.0013635 6:1.132671 7:0.15194056 8:0.17209867 9:0.33333333 10:0.33333333 11:0.42857143 12:0.059479554 \n1 1:0.14015479 2:0.053688167 3:0.2962963 4:0.37037037 5:1.0889356 6:1.024367 7:0.10845466 8:0.11109737 9:0 10:0 11:0.85714286 12:0.49070632 \n1 1:0.022600476 2:0.6452895 3:0.14814815 4:0.22222222 5:1.159754 6:1.1366517 7:0.093435062 8:0.10620312 9:0 10:0 11:0.28571429 12:0.022304833 \n1 1:0.39786713 2:0.061917307 3:0.33333333 4:0.33333333 5:1.0164242 6:1.0762236 7:0.10313204 8:0.11099313 9:0 10:0 11:0.71428571 12:0.18215613 \n0.8819260565984477 1:0.50364921 2:0.33691551 3:0.25925926 4:0.25925926 5:105.88133 6:1.2020342 7:0.017019921 8:0.020458527 9:0 10:0 11:0.85714286 12:0.28624535 \n1 1:0.18060163 2:0.1411269 3:0.48148148 4:0.48148148 5:1.0150462 6:1.0317379 7:0.19989922 8:0.20624361 9:0.66666667 10:0.66666667 11:1 12:0.49814126 \n1 1:0.23172015 2:0.2306144 3:0.33333333 4:0.44444444 5:1.2175762 6:1.221685 7:0.14070247 8:0.1718941 9:0.33333333 10:0.33333333 11:0.71428571 12:0.19702602 \n1 1:0.23428314 2:0.72548689 3:0.25925926 4:0.2962963 5:1.206412 6:1.3545307 7:0.13550172 8:0.18354124 9:0 10:0.33333333 11:0.57142857 12:0.05204461 \n1 1:0.4376026 2:0.19064805 3:0.40740741 4:0.55555556 5:1.6564581 6:1.2126118 7:0.14374356 8:0.17430513 9:0.33333333 10:0.33333333 11:0.57142857 12:0.092936803 \n0.04968715438125276 1:0.22821875 2:0.12832276 3:0.2962963 4:0.2962963 5:584.446 6:1.0534466 7:0.11822013 8:0.12453859 9:0 10:0 11:1 12:0.62453532 \n1 1:0.079235757 2:0.043751469 3:0.25925926 4:0.2962963 5:1.3614186 6:1.1517843 7:0.12667839 8:0.14590618 9:0 10:0 11:1 12:1 \n1 1:0.09164456 2:0.038360206 3:0.22222222 4:0.2962963 5:2.2237335 6:1.1152196 7:0.14084984 8:0.1570785 9:0 10:0 11:1 12:1 \n1 1:0.3920364 2:0.28287971 3:0.2962963 4:0.33333333 5:1.1836948 6:1.1518245 7:0.097853555 8:0.11271012 9:0 10:0 11:0.42857143 12:0.11152416 \n0.1666878382261486 1:0.25226282 2:0.25858518 3:0.2962963 4:0.62962963 5:80.372008 6:1.5122616 7:0.088651862 8:0.13406481 9:0 10:0.33333333 11:0.85714286 12:0.71375465 \n0.4105809894515818 1:0.39052525 2:0.078361446 3:0.55555556 4:0.66666667 5:5.6238424 6:1.1409958 7:0.089984315 8:0.10267173 9:0.66666667 10:0.66666667 11:1 12:0.79182156 \n0.2582307860107981 1:0.67027167 2:0.9251557 3:0.44444444 4:0.44444444 5:8.1615789 6:1.3494901 7:0.04980395 8:0.067209939 9:0 10:0 11:0.85714286 12:0.51301115 \n1 1:0.15049861 2:0.040966064 3:0.44444444 4:0.48148148 5:2.0549187 6:1.4162089 7:0.17146552 8:0.242831 9:0.33333333 10:0.33333333 11:0.85714286 12:0.4795539 \n0.04496131610303705 1:0.51853328 2:0.038800252 3:0.2962963 4:0.44444444 5:120.88428 6:1.1648244 7:0.048319647 8:0.056283904 9:0.33333333 10:0.33333333 11:0.42857143 12:0.12267658 \n0.7708815115440408 1:0.47716269 2:0.93602216 3:0.33333333 4:0.37037037 5:2.0881933 6:1.2281007 7:0.071529677 8:0.087845644 9:0 10:0 11:0.42857143 12:0.059479554 \n1 1:0.18082284 2:0.043754368 3:0.2962963 4:0.55555556 5:3.3998444 6:1.9632012 7:0.075177754 8:0.14758906 9:0.66666667 10:0.66666667 11:1 12:0.76579926 \n1 1:0.11148569 2:0.11605355 3:0.37037037 4:0.40740741 5:2.024441 6:1.1090834 7:0.17726234 8:0.19659873 9:0.66666667 10:0.66666667 11:0.85714286 12:0.38289963 \n1 1:0.22771145 2:0.71064165 3:0.2962963 4:0.62962963 5:1.2954357 6:1.1140591 7:0.12851233 8:0.14317033 9:0.33333333 10:0.33333333 11:0.71428571 12:0.18587361 \n1 1:0.41720507 2:0.096021279 3:0.44444444 4:0.51851852 5:2.3062084 6:1.16718 7:0.1349471 8:0.15750756 9:0.33333333 10:0.33333333 11:0.71428571 12:0.21933086 \n1 1:0.34015478 2:0.09009498 3:0.2962963 4:0.37037037 5:2.8931071 6:1.0397713 7:0.13499209 8:0.1403609 9:0 10:0 11:1 12:0.79182156 \n1 1:0.26594604 2:0.21951218 3:0.2962963 4:0.44444444 5:2.4108087 6:1.1602312 7:0.11832507 8:0.13728444 9:0 10:0 11:0.85714286 12:0.69888476 \n0.04597521883690042 1:0.58959396 2:0.22694835 3:0.2962963 4:0.48148148 5:63.466647 6:2.7243075 7:0.034408304 8:0.093738799 9:0 10:0 11:1 12:0.54275093 \n1 1:0.25975727 2:0.061679343 3:0.25925926 4:0.33333333 5:5.9262301 6:1.0672711 7:0.1294118 8:0.13811747 9:0 10:0 11:1 12:0.54275093 \n1 1:0.49454438 2:0.037763098 3:0.14814815 4:0.18518519 5:9.1201632 6:1.0104002 7:0.11838606 8:0.1196173 9:0 10:0 11:0.14285714 12:0.018587361 \n1 1:0.50916252 2:0.019951094 3:0.2962963 4:0.33333333 5:1.6530846 6:1.0382931 7:0.12741541 8:0.13229454 9:0 10:0 11:1 12:0.79182156 \n1 1:0.15929216 2:0.36584202 3:0.18518519 4:0.2962963 5:2.2850866 6:1.1500768 7:0.080035286 8:0.092046724 9:0 10:0 11:0.71428571 12:0.18587361 \n1 1:0 2:0.10499692 3:0.14814815 4:0.14814815 5:2.7497488 6:1.2716634 7:0.13161045 8:0.1673642 9:0 10:0.33333333 11:0.42857143 12:0.037174721 \n1 1:0.29973914 2:0.01937985 3:0.22222222 4:0.37037037 5:2.8730864 6:1.0175037 7:0.12928695 8:0.13154994 9:0 10:0 11:1 12:0.76579926 \n1 1:0.15139867 2:0.088563733 3:0.22222222 4:0.25925926 5:1.8947582 6:1.0230562 7:0.087909993 8:0.089936865 9:0 10:0 11:0.71428571 12:0.13754647 \n0.009248041937648055 1:0.96009232 2:0.080301678 3:0.44444444 4:0.59259259 5:107.34085 6:2.0334413 7:0.07913111 8:0.16090847 9:0 10:0.33333333 11:0.85714286 12:0.39033457 \n0.007326951970820006 1:0.26525864 2:0.27809449 3:0.2962963 4:0.48148148 5:45.812959 6:2.4368034 7:0.044423094 8:0.10825035 9:0.33333333 10:0.33333333 11:1 12:0.94795539 \n1 1:0.1771563 2:0.80971787 3:0.14814815 4:0.2962963 5:1.1060896 6:1.4009833 7:0.17821918 8:0.24968211 9:0 10:0.33333333 11:0.57142857 12:0.089219331 \n0.7769735501356679 1:0.52987972 2:0.094936746 3:0.2962963 4:0.2962963 5:53.138477 6:1.0298557 7:0.0084517516 8:0.0087040846 9:0 10:0 11:1 12:0.79182156 \n1 1:0.3249381 2:0.053272379 3:0.2962963 4:0.33333333 5:3.9144743 6:1.0022938 7:0.12474577 8:0.12503191 9:0 10:0 11:0.85714286 12:0.71375465 \n1 1:0.16135313 2:0.17458376 3:0.37037037 4:0.51851852 5:1.4220702 6:1.4393916 7:0.16207261 8:0.23328595 9:0.33333333 10:0.33333333 11:0.57142857 12:0.14498141 \n1 1:0.18594305 2:0.11625535 3:0.2962963 4:0.2962963 5:6.483695 6:1.0845078 7:0.14496035 8:0.15721064 9:0 10:0 11:1 12:0.94795539 \n1 1:0.16422058 2:0.075239362 3:0.59259259 4:0.66666667 5:1.9205925 6:1.2622916 7:0.12682995 8:0.16009638 9:0.33333333 10:0.33333333 11:0.85714286 12:0.24163569 \n1 1:0.19555442 2:0.062747946 3:0.40740741 4:0.48148148 5:2.3107054 6:1.5071109 7:0.12641109 8:0.19051554 9:0.33333333 10:0.33333333 11:0.57142857 12:0.081784387 \n0.737574200401703 1:0.33652878 2:0.097387059 3:0.25925926 4:0.33333333 5:15.171323 6:1.1412715 7:0.075576592 8:0.086253409 9:0 10:0 11:1 12:0.49070632 \n0.00255043306134418 1:0.5765995 2:0.839571 3:0.37037037 4:0.37037037 5:2.1299229 6:1.0164632 7:0.11489323 8:0.11678474 9:0 10:0 11:0.28571429 12:0.05204461 \n0.0619838644905253 1:0.46596929 2:0.045268129 3:0.25925926 4:0.44444444 5:5.2177268 6:1.0251029 7:0.094416971 8:0.09678711 9:0 10:0 11:0.71428571 12:0.19702602 \n1 1:0 2:0.14140978 3:0.40740741 4:0.44444444 5:5.3367152 6:1.1089714 7:0.1856556 8:0.20588675 9:0.33333333 10:0.33333333 11:0.71428571 12:0.24535316 \n1 1:0.31902674 2:0.12202194 3:0.37037037 4:0.48148148 5:1.2155451 6:1.1314621 7:0.11550416 8:0.13068857 9:0.33333333 10:0.33333333 11:1 12:0.54275093 \n1 1:0.32736721 2:0.030796109 3:0.25925926 4:0.37037037 5:2.975668 6:1.1743946 7:0.1214861 8:0.14267261 9:0 10:0 11:1 12:0.79182156 \n0.6996637321847523 1:0.1150467 2:0.14184851 3:0.40740741 4:0.7037037 5:7.1330206 6:1.5104787 7:0.12588782 8:0.19015086 9:0 10:0.33333333 11:0.85714286 12:0.38289963 \n1 1:0.34198568 2:0.065509744 3:0.51851852 4:0.51851852 5:1.0000669 6:1.0162823 7:0.15020673 8:0.15265244 9:0.33333333 10:0.33333333 11:0.71428571 12:0.23420074 \n1 1:0.32142816 2:0.12283965 3:0.25925926 4:0.44444444 5:5.170958 6:1.0553952 7:0.10583007 8:0.11169254 9:0 10:0 11:0.71428571 12:0.24535316 \n1 1:0.18730153 2:0.051589382 3:0.22222222 4:0.2962963 5:4.5942894 6:1.0074052 7:0.081880515 8:0.082486854 9:0 10:0 11:0.57142857 12:0.085501859 \n1 1:0.16582628 2:0.031930454 3:0.2962963 4:0.37037037 5:1.0973307 6:1.3099928 7:0.18203526 8:0.23846488 9:0 10:0.33333333 11:0.57142857 12:0.12639405 \n0.04085538985386799 1:0.08720108 2:0.13058675 3:0.37037037 4:0.55555556 5:26.019765 6:1.398622 7:0.12091396 8:0.16911292 9:0 10:0.33333333 11:0.85714286 12:0.38289963 \n0.3438292102078467 1:0.44151962 2:0.86633627 3:0.40740741 4:0.55555556 5:2.9081139 6:2.0916474 7:0.10115292 8:0.21157624 9:0.33333333 10:0.66666667 11:0.71428571 12:0.14498141 \n1 1:0.14839939 2:0.038220301 3:0.14814815 4:0.14814815 5:3.0902644 6:1.1171013 7:0.15113515 8:0.16883327 9:0 10:0 11:0.28571429 12:0.033457249 \n0.1357083311904735 1:0.30047183 2:0.24929005 3:0.25925926 4:0.66666667 5:19.201571 6:2.2444745 7:0.068761266 8:0.15433291 9:0 10:0.33333333 11:0.85714286 12:0.4795539 \n1 1:0.13997872 2:0.4702298 3:0.14814815 4:0.14814815 5:1.5860724 6:1.1023607 7:0.079191571 8:0.087297679 9:0 10:0 11:0.42857143 12:0.022304833 \n1 1:0.13049039 2:0.37177189 3:0.55555556 4:0.62962963 5:1.2506659 6:1.0975784 7:0.17960358 8:0.19712902 9:0.66666667 10:0.66666667 11:0.85714286 12:0.32342007 \n1 1:0.068103533 2:0.1097238 3:0.51851852 4:0.51851852 5:1.0966724 6:1.4380906 7:0.16089383 8:0.23137992 9:0.33333333 10:0.33333333 11:1 12:0.49070632 \n0.7924709475440747 1:0.18111613 2:0.041223295 3:0.2962963 4:0.33333333 5:9.2092962 6:1.0776009 7:0.18716052 8:0.20168434 9:0.66666667 10:0.66666667 11:0.85714286 12:0.28624535 \n1 1:0.61343699 2:0.025037009 3:0.37037037 4:0.37037037 5:6.9470437 6:1.0701838 7:0.093821553 8:0.10040631 9:0 10:0 11:0.71428571 12:0.27509294 \n1 1:0.27869268 2:0.10466317 3:0.25925926 4:0.2962963 5:1.5714728 6:1.3731899 7:0.12296335 8:0.16885202 9:0 10:0 11:1 12:0.95539033 \n1 1:0.15088348 2:0.38611114 3:0.2962963 4:0.55555556 5:1.4195206 6:1.0959487 7:0.20020536 8:0.21941481 9:0 10:0.33333333 11:0.57142857 12:0.089219331 \n1 1:0.091768203 2:0.047238571 3:0.037037037 4:0.51851852 5:5.9861841 6:1.6507536 7:0.22845204 8:0.37711803 9:0 10:0 11:0.42857143 12:0.12267658 \n1 1:0.97503164 2:0.059959766 3:0.037037037 4:0.037037037 5:1.4856553 6:1.2767156 7:0.071877292 8:0.091766862 9:0 10:0 11:0 12:0.0037174721 \n1 1:0.12280942 2:0.0029390152 3:0.22222222 4:0.25925926 5:1.9403814 6:1.0070417 7:0.18599808 8:0.18730783 9:0 10:0 11:0.85714286 12:0.37918216 \n1 1:0.13834232 2:0.36248854 3:0.44444444 4:0.48148148 5:1.1984819 6:1.4338372 7:0.1457018 8:0.20891266 9:0.66666667 10:0.66666667 11:1 12:0.85873606 \n1 1:0.33095724 2:0.76218089 3:0.2962963 4:0.33333333 5:1.0544227 6:1.2691303 7:0.093746659 8:0.11897673 9:0 10:0 11:0.42857143 12:0.048327138 \n0.5571234034753682 1:0.13896443 2:0.57670379 3:0.22222222 4:0.2962963 5:3.1442667 6:1.3699698 7:0.084192026 8:0.11534054 9:0 10:0 11:0.85714286 12:0.38289963 \n1 1:0.24574889 2:0.091377938 3:0.44444444 4:0.59259259 5:3.500175 6:1.100836 7:0.14787469 8:0.16278579 9:0.66666667 10:0.66666667 11:0.85714286 12:0.37918216 \n1 1:0.32866438 2:0.072290228 3:0.44444444 4:0.48148148 5:1.9362024 6:1.0388097 7:0.12172546 8:0.12644958 9:0.33333333 10:0.33333333 11:0.85714286 12:0.4795539 \n1 1:0.095062923 2:0.42640646 3:0.2962963 4:0.40740741 5:1.7176965 6:1.2169364 7:0.11072311 8:0.13474298 9:0 10:0 11:0.85714286 12:0.51301115 \n0.6058067993879299 1:0.81055076 2:0.7311389 3:0.48148148 4:0.55555556 5:3.2760789 6:1.0412497 7:0.15381651 8:0.16016139 9:0.66666667 10:0.66666667 11:0.85714286 12:0.51672862 \n0.02441020957876211 1:0.32501738 2:0.44007683 3:0.40740741 4:0.44444444 5:47.227116 6:1.0592718 7:0.06130917 8:0.064943077 9:0.33333333 10:0.66666667 11:1 12:0.7472119 \n0.0210249785992988 1:0.79351782 2:0.068729333 3:0.2962963 4:0.37037037 5:84.779529 6:1.2343789 7:0.032229508 8:0.039783425 9:0 10:0 11:0.42857143 12:0.066914498 \n1 1:0.39505576 2:0.015118387 3:0.037037037 4:0.037037037 5:1.5745777 6:1.0259784 7:0.18333799 8:0.18810082 9:0 10:0 11:0.42857143 12:0.066914498 \n1 1:0.38562017 2:0.032006055 3:0.33333333 4:0.40740741 5:2.304318 6:1.2573643 7:0.12269302 8:0.15426982 9:0 10:0 11:0.85714286 12:0.35687732 \n1 1:0.29409652 2:0.12775809 3:0.074074074 4:0.59259259 5:3.4037954 6:1.482033 7:0.12714864 8:0.18843848 9:0 10:0 11:1 12:0.7472119 \n1 1:0.25426182 2:0.049987953 3:0.25925926 4:0.33333333 5:2.6591948 6:1.0371607 7:0.1588166 8:0.16471834 9:0 10:0 11:1 12:0.95539033 \n1 1:0.13424896 2:0.11234445 3:0.18518519 4:0.25925926 5:12.088476 6:1.1752906 7:0.088289615 8:0.10376596 9:0 10:0 11:0.71428571 12:0.18587361 \n1 1:0.21495311 2:0.11130189 3:0.18518519 4:0.22222222 5:2.9842369 6:1.1206352 7:0.11809318 8:0.13233937 9:0 10:0 11:0.85714286 12:0.69888476 \n1 1:0.18488917 2:0.55924376 3:0.14814815 4:0.18518519 